2500 100
the 2.2682788 0.4294785 0.6904768 -0.5223128 -2.7302434 -1.161247 -0.06999082 -0.59740067 -0.3271747 1.2686495 1.4724021 0.24601015 -0.39180735 -1.2212135 0.24680379 2.6199896 -1.5617517 1.7294444 0.42309794 -0.5294593 0.46150827 -0.55550253 -0.5692182 -0.7642644 0.64514285 -0.62290233 -0.8967482 -0.98522025 1.2784445 0.6284129 1.115174 -1.409153 -2.9779594 1.7106032 3.0064118 0.39360872 2.756629 -0.5880176 -2.5395792 1.0320095 1.3996285 0.22562367 -0.8577715 -0.26007247 -1.3391974 1.8364275 2.6315136 0.78881586 0.123447925 1.1261325 -0.49229386 1.7428942 0.4069659 -1.3230995 3.5584977 2.19691 -0.42582694 -0.054724023 2.842785 0.006015658 0.49572995 1.9957948 -0.055738796 -0.5137085 0.85498106 -1.2591506 -0.36291027 1.2826781 0.7239004 0.811993 -1.9046612 -2.0669076 -1.1859688 -0.32842734 1.3662235 0.8051759 0.44640455 0.11091143 -0.933365 1.9538499 0.030387778 -0.95613617 0.40336522 -1.223667 0.7639168 1.905717 0.083284065 -0.75086254 0.39895982 -0.87856257 -1.4244163 -0.3995 0.08401341 0.28636688 1.3487563 -2.027557 -1.3555161 2.0681658 0.37060454 1.3087188
i 4.5746546 1.4835114 -3.9632454 2.5550468 0.013689057 -4.2826624 0.8088879 1.2925268 -0.47307643 0.13283052 0.7363166 0.42449838 -0.7799702 0.59289145 2.7772608 -0.09995344 -0.4439054 1.9527857 -0.06705571 3.8367107 1.5946221 -1.435358 -0.3186661 0.20878913 -0.3775481 -0.19088267 -0.06623302 0.6923913 0.17432663 -0.23164955 1.712663 1.4320326 1.17135 -0.7236244 -0.9536266 1.8916718 -1.6929644 0.08299918 -0.43025723 0.35631722 1.526253 2.0721092 0.24420053 -0.13677031 2.680975 -0.42844152 -0.69860417 -0.49888358 2.137578 3.9973705 -3.9052472 3.4903286 -1.1042132 -1.9272436 -0.26170385 -0.04568653 2.1863105 0.4556397 1.4275507 1.2051771 0.22979741 2.1316862 0.8621341 -0.42380884 1.3672488 1.7218504 -0.5297947 0.40083197 0.42125863 -2.8545773 -0.022731598 -2.3097649 1.3862456 -0.16955501 -0.97860515 1.6741555 -1.8383844 1.3897084 0.6830175 0.40806273 1.156421 0.8827035 -1.5520859 0.5642826 0.59581906 1.38855 -2.4462128 2.4769197 2.080321 0.363554 -1.4631487 -3.251176 1.0168389 0.82871556 0.29138142 -1.9987481 -0.44531387 0.98609686 -3.5437238 3.264473
it 2.8146684 0.61310095 -1.0445527 -1.6717426 -1.4795804 -0.62227553 1.8983265 0.76171875 0.8305408 0.62907445 -0.018928785 0.4812647 0.42257854 -4.179602 1.3205893 1.8500936 -0.9383526 1.6808937 -0.18126787 2.7259564 1.9081132 -0.592112 -0.90722394 -0.42994663 1.179567 1.5517492 0.15330717 0.8947818 -0.525161 0.85673946 -0.43139678 -4.3086934 1.432248 1.0785404 0.3813265 -0.6921584 2.07095 -1.2785051 -2.059936 0.18482581 0.6217601 1.7146938 1.260275 1.5327771 2.5797415 -0.77518016 0.6170402 1.638867 1.5887359 3.7093062 -1.4781076 1.8212982 -0.53607947 -3.1607168 1.5342586 -1.650714 0.40622494 0.06543624 3.7059479 -3.0761325 -0.71944344 1.6144471 0.9392505 -3.0157986 1.5551206 -0.82372093 -0.09655538 1.0130754 0.12095785 -1.484154 1.3716848 -1.9270082 -1.6333568 -0.9521621 -0.66902584 0.40897915 0.2848222 0.47164726 -1.7554433 1.5656884 -0.40454808 -1.9946603 -1.305777 0.36906767 -0.93763566 0.9225689 -0.07329395 1.778086 -0.21235889 0.8495682 -0.6821012 -1.2206397 -1.365083 0.9635967 0.19136906 -0.34512314 -1.1009741 0.76182145 0.073459916 1.0145112
and -0.1332192 -1.5078273 -0.3431813 -0.18894643 -1.1452053 -1.3059967 1.5059223 0.43779942 -0.72037977 0.95767194 0.417408 0.9173307 -1.6711794 -1.2260749 0.26960918 -0.83891946 -0.6941279 2.1554065 -0.45325667 -0.28623265 -0.21546806 -0.900666 -0.6435907 -0.90920585 0.0018415457 -0.31726405 -0.43340445 0.09321276 -1.2579312 -0.17827563 -1.0085053 -2.0313132 0.106033236 0.7296073 0.6124811 -0.98959315 -0.013975449 0.49155784 -1.4379289 0.20729057 -0.36016515 -0.011158583 -0.16719349 -0.012122753 3.072509 -1.8359503 0.5741319 0.62673885 1.4415306 1.5009251 0.42065728 1.7318044 -1.918926 -1.8779646 0.13468705 -0.2658576 -0.3524624 -2.1881566 1.9357738 0.8831596 -1.8867885 0.893579 1.0068681 2.5638552 1.3527414 -0.6836423 -0.2181192 1.8349409 -0.10787787 0.59864956 1.0664781 -1.66251 -0.48599616 -1.0308658 0.6672568 -0.22888638 1.6779368 -0.032569297 -0.25013492 0.10283698 0.6862444 -1.7023258 0.6189638 -0.8079348 -0.036553092 0.9985346 -1.1633606 -1.1932527 -0.1023047 0.36021334 -2.0896187 -0.9451363 -1.1621813 1.8816409 0.14854755 -1.8667781 -1.126981 0.11246864 0.41385725 1.0187044
to 1.7017721 0.18189396 -3.0128233 -1.9476993 -1.9146478 -0.74935025 -0.37725872 -0.77187586 -1.4454036 2.7464664 -0.20483129 1.984314 0.305775 -0.49455014 0.16986299 -0.15996389 0.21944852 1.3055428 -1.4361246 0.88104206 4.3045907 -2.7423527 -1.8264769 0.19687262 -0.37811738 -2.84964 -1.1573962 0.36925355 -3.3643157 -1.8631935 0.4276377 -3.23083 0.7647477 0.1937664 2.143237 -0.56856364 -0.32419166 1.8917378 -1.615589 1.0935671 0.7392151 0.34118995 -1.3168718 -1.853606 1.828684 -1.5842408 1.4775923 -0.5679677 1.2720032 1.3469884 -0.1428816 2.9770274 -0.97350454 -1.9911418 0.26592442 2.626617 -0.33066675 -0.2561793 5.2260323 1.228188 -2.6053274 1.0712563 -0.09143328 0.050513268 1.8765897 -1.3686068 2.6682801 3.1889453 0.030977428 -1.4284372 1.8417803 -3.0894804 -2.3250291 -2.31445 -1.8454794 -1.477369 0.6775878 0.3162102 -0.7196099 0.9609985 -0.2832037 0.36046684 -2.1354988 2.2116637 0.987691 0.96328515 -1.225599 1.3060992 -1.7415924 0.3385866 0.7145159 -2.009785 -0.14624862 1.6504071 1.7723196 0.29610428 3.5095048 -1.5265148 -1.3918902 4.823883
a 0.4172203 0.7488079 -0.30320698 2.4246194 -2.4001122 1.3764354 0.046356026 -0.9198053 -0.68515235 -1.7677706 -0.17789115 0.35784212 -3.6657524 -1.2310171 2.134733 0.5494325 -0.12662151 1.1355546 -0.44919378 1.7234765 2.5825171 -0.75235915 0.55272675 -1.5536255 0.5755767 0.0015226704 0.41840944 -0.89813 0.9016322 1.5962422 1.1174799 -2.9098446 -2.7973912 1.4649816 5.669493 -0.899976 2.4043572 -1.364217 0.6849731 -0.50769734 0.48682573 2.7071657 -3.775461 0.4587828 2.6069896 2.685082 0.3227755 2.7612352 -0.44561592 1.9623984 0.10039663 1.006492 -2.1534123 -0.10290575 3.186315 -0.7594869 1.8891286 -0.6785819 1.1093017 -0.48875856 -1.1285452 0.99919677 0.096655205 -0.74235064 0.05310416 2.1947572 1.4305707 -0.25648087 -0.20407653 2.0402853 -0.101188615 -0.017565157 -1.2199745 -1.6474729 -3.1995778 0.13570724 0.9907878 1.4566896 -0.51298815 2.2025454 0.9178445 -0.36295095 0.7579696 0.95783406 1.5441037 3.5636907 -0.650184 -0.3890717 -0.12476534 0.0194617 0.8171964 -1.2167759 1.1250259 1.1941597 -0.43983662 -0.34657648 -1.4103935 1.739469 -1.0831567 -0.6181733
be -0.88251054 -0.75593 0.52990156 1.8127695 -0.09481201 -0.896548 -1.7446058 -1.2043494 1.4751782 0.521252 1.4624269 -1.2636716 2.6457248 0.12148303 0.21273434 3.2143712 2.426332 0.9559504 -1.1401738 -0.58195925 -0.17272289 -0.42375255 1.4862516 -1.4431615 2.1210704 0.82348704 2.5510423 -0.016037978 -2.084588 0.8258253 -0.33697835 0.47659114 0.17855953 1.7951542 0.5333705 0.8759799 0.8391642 -0.6797072 0.815358 -2.3184273 1.0165402 -0.97004336 -0.70758927 1.5097177 2.1060016 3.7860081 1.4641857 0.8288433 -0.095208146 3.9217088 0.74450636 0.3555286 -1.6350975 -2.0503898 -0.21890688 -0.19952254 1.7440133 -0.49872908 -1.3198884 -1.3300153 -0.18726297 0.21158439 -0.97387856 -1.7377644 -0.7823721 -0.19863883 0.3134698 0.1912795 -1.6819205 2.8204699 1.4370292 -0.16024585 -1.3288215 1.9490628 0.103031136 0.23550098 0.07287198 -2.3023934 -1.902163 1.474779 1.8827202 -1.5161173 -0.57510084 2.0620165 -0.3348181 -1.2558298 1.6867073 0.7071049 0.46315277 2.504332 0.15400581 -2.2597024 0.11068983 -1.8978213 -0.7535923 1.4831041 0.63637644 0.5918312 -0.19681616 0.48778594
this 2.8932426 1.3182563 -0.31968507 -2.65894 -1.2394727 -0.21877658 1.6071843 2.3458524 1.4655418 -0.38454154 -2.0017538 -1.4096607 -0.99848425 -2.2211022 1.7679381 2.4672902 -1.7677829 0.66426057 -2.3708487 1.5658451 1.6348844 0.93789035 -0.8074814 1.4756361 2.551188 0.6730911 1.5697826 0.6494428 0.71289945 0.008198155 0.44750834 -0.5381599 1.9223385 -0.012673968 3.1585295 -0.5096713 4.237543 0.22486083 0.46314594 0.9223751 1.9638556 0.89939576 1.3680686 0.5623268 2.481228 1.454365 0.4690918 0.15455465 -0.27423406 1.8636006 -2.993708 1.2363394 1.967043 -0.60392594 1.0673809 -0.30082372 1.004217 0.44415823 1.1999927 -1.5555533 1.4741399 2.0522885 0.8445223 -2.0435266 2.979747 -0.94286203 -1.8155518 -1.6546133 -2.1969082 1.0100144 -1.2569975 1.278586 -0.87198186 0.20106915 -0.50185406 -1.9040998 -0.013719446 2.954165 1.6159679 1.5067985 -0.49488476 -0.29829472 -0.73116815 -0.009092969 -0.49221885 1.7994447 0.9267274 1.5943989 0.8452503 2.0476813 -1.1398402 0.009788154 0.24340948 3.161739 0.43665388 -1.787402 -1.238868 1.0322586 -0.08466027 1.0108289
of 0.39026657 -2.968632 -2.4863086 -0.36179706 0.33300188 -0.6368744 -1.489265 -0.22613785 2.2362483 -2.7754214 1.0203418 2.5087583 -0.2082672 1.4604645 0.3526582 1.149335 1.0859585 2.932756 -0.6093965 -1.5819753 1.8244833 3.6794152 0.999724 -0.42635924 0.42722714 0.41009742 1.1230204 -1.9278035 -0.12398034 0.41322255 0.70151746 1.6300166 1.2030592 2.759638 2.1379752 1.2453086 0.3277925 0.2567522 -3.64636 1.1565926 -2.576848 -0.48034972 -0.38683057 0.26021245 -0.91803765 2.3338487 1.8425298 -1.8542628 -1.6945372 1.1910995 2.9620626 -0.10349104 -3.648876 0.23239963 -2.7740228 3.7173786 -0.18761943 0.5708606 -0.19223143 -0.5899993 -1.240361 -0.18826172 2.760206 0.041368768 0.93982416 0.4724093 -0.43828884 1.6703565 0.8352696 0.7832044 -0.6551136 -0.45514274 -1.0630486 -1.3410157 -2.5597084 0.8572377 -0.3645623 1.4839169 1.1195369 4.404055 0.019341119 -0.8596344 1.3269731 -0.86023855 2.5733714 1.8274354 -2.2239833 -3.3585296 1.1552994 -1.2998998 -0.6664368 2.2013586 0.90127206 1.4733886 0.52058756 -4.0127416 0.32534152 0.63173026 -2.7348692 1.6460843
for -2.4996874 -1.4705362 -0.8980614 0.5610268 -0.84561664 0.73685926 -0.646822 0.18747693 -2.0583127 -1.4091309 -1.412662 1.8286391 -1.5087073 0.12704419 0.16577493 0.22600557 2.1216338 -0.6822876 -0.20071492 -1.5785407 1.8582585 0.5935339 -1.2931089 0.948358 0.42353934 -3.3305273 -1.2504212 1.5386281 -1.5117633 1.3142377 0.92426383 -0.8587315 0.16213877 3.0397258 2.1796384 0.43745798 1.0358406 -0.29171345 -2.8579082 1.7568758 1.1738766 -2.265492 1.1067327 0.26354212 4.169164 2.3185222 -1.9264964 -0.44160792 -0.32866707 -0.43424442 2.9911091 1.3933343 0.16903949 -1.5862668 -1.987191 -0.58094263 1.7155062 -0.58304656 0.049396474 0.09284373 0.20798995 0.6339669 0.63815355 -1.43058 0.0644829 0.37916568 1.0137974 -1.8157579 -0.9710147 1.0061955 4.7087607 2.0004709 -0.12387385 -2.555237 0.18244012 -0.84672487 -2.1528852 -0.16289262 0.24879752 -0.285744 3.3593307 0.099818 -1.1668307 2.5138223 -1.3136743 0.5339545 1.0357431 -0.59039503 1.7849696 -0.045376763 -1.0853105 0.38608092 2.784771 2.0501175 0.4834837 0.08059744 -0.17825174 -0.65146977 -1.9065285 -0.32300252
my 3.9544811 -1.2575934 0.1908215 1.4564474 -3.3516045 -0.45487937 2.654923 0.018247234 1.6460212 -3.1860595 -1.7879295 -2.3174627 -1.8926413 -3.819523 -1.3320488 0.8800803 -1.4558606 -1.0379065 -1.0411503 2.385367 -1.9055743 -0.42905623 -4.5980387 -1.2431794 1.8113902 -3.1985755 -3.0208383 2.004897 1.6325042 0.61554873 0.15240571 2.570258 -0.7890405 -2.7115622 2.7173898 1.840006 0.3101084 0.17416051 -2.5169325 -0.64683855 2.554876 1.8111861 -0.3445241 0.77377534 -0.9873313 1.8097343 3.6644917 -0.52464163 4.1087484 -1.0431385 -0.26549384 1.0641552 -0.9399434 -0.30654863 3.8425844 0.22910833 -2.1268058 -2.522587 0.75836855 3.4498532 0.054816835 0.6417429 1.769305 1.6883281 -1.9024394 0.62468195 2.4278882 -1.3888826 1.1578547 -1.1097633 3.7404997 -1.7712655 -0.41366053 3.4549162 -1.449966 -0.22738001 -1.15449 -0.8294412 0.09428276 0.31551224 1.4631485 1.5634717 -0.94415015 -3.0896876 -3.5695736 1.9479586 -1.1042805 -0.21664637 2.914747 -3.8115962 -2.5156045 -2.5575466 -2.0206687 1.2823135 -0.27464363 -1.9436188 -2.4803252 -1.0467039 -1.1446358 -1.2117658
have 1.6958228 -1.6854304 -0.76606125 -0.22259349 0.35625187 -2.3909116 0.49229074 1.7228844 0.5287734 -1.7710314 -0.44120866 -0.3856401 1.7147495 -0.3530835 1.6596661 1.1248584 -1.2227235 0.4095314 0.72343594 -0.37892285 -0.4141909 0.6658187 0.9271092 0.63261485 -0.12583281 -1.9227824 1.3151135 2.9853806 -0.27656183 0.70771027 -0.7771285 -2.1288917 -0.4671778 0.65304387 1.7657243 2.186816 -1.0953037 -0.72946876 -2.1295364 -0.8907503 -1.1864225 -0.24194606 0.67817014 0.35520837 -1.128846 0.5347956 0.12048009 -1.8411198 -0.040757377 0.28833854 1.1614219 -0.8122322 1.5006039 0.7865109 -0.061387904 -1.7719654 -0.007004106 -1.278692 -1.6128348 -1.5985702 1.1792287 1.7926382 0.6413952 0.56275564 -1.254535 -0.03563568 0.3898265 -2.0860744 0.19339338 1.69703 1.115929 -0.2892161 1.7344358 0.15758649 0.3929573 1.5558915 -0.36005327 -0.7282096 -0.52594596 0.8411266 0.114733495 2.4452033 -0.26697564 2.3267567 1.0568783 2.4302273 -0.6940682 -1.0854249 -0.8279715 1.0463649 -0.22423661 0.41592973 -0.81088233 0.6084846 0.18227214 0.053645916 0.3105835 2.449622 0.48216373 -0.6210681
in 1.9430944 -0.5584183 -2.4880326 -0.8591616 -0.5093101 0.5067893 0.1687074 1.9302087 -0.3699862 2.9063108 2.0435112 2.3961377 -2.2218127 0.14560628 0.9519343 -1.4890174 2.5240483 -0.19089103 1.8950044 -3.8413825 1.4518431 1.0781294 1.1570727 1.0381287 1.2969044 -1.4739197 -2.3415365 -2.6926134 -0.07145862 0.31441304 3.195106 -0.9448253 -0.6562834 -0.4722237 1.3838094 0.20960994 0.11203992 -1.7862706 -1.1448716 1.4815966 1.6679718 -0.31940272 -0.0662377 -0.02190301 0.33383465 0.018953562 -0.0343677 1.8614908 1.148926 2.8123763 0.19730015 -1.8489136 -1.6374876 -1.9626977 -0.16945188 3.039775 0.46965978 0.29760015 0.8269081 1.1568925 -1.655444 -1.0929418 3.0705283 0.8741677 -2.5820239 -2.122427 -1.7266551 -1.0316287 1.5280617 0.2599082 0.22781475 -2.2994325 -3.1270194 -2.28205 1.9936697 1.0942035 -0.14830106 -2.2016752 -0.47788146 0.25595665 1.353943 2.0294652 2.549071 2.0701244 2.2217422 1.4034944 1.2772105 -2.3496387 -0.91729134 0.4700401 -1.0234811 0.7911459 -1.3043623 1.588203 -0.7022333 -2.7713828 3.015664 0.6838712 -1.4116973 -0.16350311
that 3.1203668 0.083531395 -0.6668082 -1.3668346 -0.9367972 -1.502121 0.49674442 0.953959 -1.3906115 1.5740469 -0.36345232 -1.2932371 0.02313948 -1.037141 1.7722732 0.49258572 -0.7633179 0.91771203 -2.0776699 -0.027196039 2.3895364 -3.184174 0.8111663 -1.440564 2.1391718 0.596755 0.46969867 0.35844177 0.31383625 -2.7114623 0.7657532 -0.6274439 0.44170403 1.0720135 1.5751687 -1.0296128 1.6782793 1.1366317 -1.017885 1.0695145 -0.72898614 2.5362635 1.03986 1.1267155 1.3599527 -0.4704849 1.9905512 0.20369905 -0.2407439 -0.11696551 -0.87302023 1.1523675 -1.2357097 -2.5784204 -0.4750857 1.1887659 -0.7205658 -0.67215765 3.86601 -2.1238825 -0.12218275 1.1118042 0.26048043 -0.14849982 2.0258777 -1.5272064 0.5459571 -0.21449874 0.20618984 -0.5512793 -1.2228507 -1.0354545 -0.526834 0.9435774 -0.35673386 1.552049 0.69539446 -0.91307765 -1.1500503 2.3905365 1.3367985 0.14291228 -1.1677364 0.074011125 2.5435097 -0.022517893 -1.384203 0.5288304 -0.27365845 1.6033782 -0.77128696 0.81111366 0.8495015 1.2881396 -0.28293628 -2.420632 0.57204825 2.7539477 -0.2315904 2.9129126
with 0.18028232 -1.5619396 -0.15817128 0.29202378 -0.8962785 0.517803 1.3745226 0.91235864 -1.4569931 0.5866321 0.42814162 0.5539992 -1.7516294 4.0182657 -0.38216588 -1.0591689 -0.3823226 1.5681775 2.6213794 -2.0354507 -0.81505126 3.3897486 -0.34989798 -0.9157696 -0.68073034 -1.3892999 2.3265135 0.36862338 -2.1784775 0.512369 1.565509 0.5825895 -0.011983695 1.1012639 2.453685 0.626049 -1.6048441 0.7852182 -0.5327899 -0.7977364 -0.19232355 -1.0904592 0.04841038 -0.03683762 0.030397218 -2.455167 0.89813477 0.50801927 1.0269395 0.28076053 0.94816345 -0.074526876 0.70882285 -1.6678088 0.22223997 -0.56838864 0.09490757 -1.4839625 2.3943584 -0.027327191 -3.964149 -1.0862595 -2.9299545 1.2915168 -2.7389514 -2.6555789 -0.621095 0.06940941 -2.6226752 1.9042196 3.3202255 -0.27455926 -3.7214494 3.2791247 -0.07685456 1.7732096 1.6316063 -0.373106 1.1472808 0.90090233 0.39685455 -2.3479311 -2.2115388 1.2299418 1.9884118 2.7487872 -1.6246756 -2.6218045 -0.13753402 0.16051656 -0.19652663 1.2956328 0.5547216 0.8155249 0.40438285 -2.594204 -0.81742543 3.4035866 -0.3743571 1.9227464
wa 0.9772682 0.57921904 0.9210447 -0.13637471 -1.4374303 -1.4983101 -2.8888245 0.46748945 1.2549508 -0.9861499 3.5773046 1.3223819 -0.039700937 -0.68123955 0.09095661 5.153069 2.1255732 2.2380342 1.3665009 2.171888 -1.825825 -1.7417225 -0.088925324 -2.7557795 3.3583915 -0.70113283 2.1942775 -1.3475364 -3.2844555 0.090980165 -1.7870458 2.1220675 2.999515 -0.8021863 2.2573698 3.7410758 -0.71913433 -2.2358096 -0.19479187 -2.9570744 1.6974963 0.4854322 -0.68581784 1.956173 1.2202196 4.3718414 -0.4067628 1.4835023 1.6164783 4.9217386 -2.6596203 3.9390752 0.21546663 0.30585665 0.7764257 -0.5701305 0.76602525 0.27355677 -2.6042366 -0.87731695 -0.29290232 -3.1613421 1.1200264 -0.52577966 -3.1699462 1.4390322 -0.3539613 2.9079983 -2.908092 0.6740935 2.6271422 -1.454437 -1.1563492 0.8733508 2.0514584 1.6596229 0.2526506 1.5948027 -1.9900466 1.009332 1.1917325 0.9622178 -0.118602276 3.151053 -1.0464522 -0.9283235 0.11176352 2.0459843 0.93784004 0.4907944 -0.79337925 -1.1575454 -0.026060825 -3.3045602 1.6652069 1.3061745 0.9504352 -0.96786463 -3.1124072 2.7936356
on 1.172254 1.2183058 1.2871158 0.21556717 0.07472367 -1.6895931 1.1651307 1.8445276 -0.14638393 0.94491863 0.76080906 0.082396455 -1.2221385 -1.5940887 -0.12074107 -1.0459409 1.2320894 2.1821308 0.087298654 -3.5528038 0.12598181 -1.2499477 0.6231336 -2.304834 0.5382013 0.043814085 -3.363894 -3.3948214 0.74122596 0.21316527 1.5338386 -2.4154768 -1.1015012 -2.0954614 -0.97836024 3.0757735 -2.782177 -0.08614913 -1.7276849 0.876685 0.61572576 -0.8601171 -1.590353 0.6976347 -0.7898888 0.120370105 -0.514789 1.776243 0.78427637 -0.51963377 3.1478727 -2.8794591 0.99400955 -2.4857883 -0.5125717 3.1170683 -1.8158231 1.4461596 1.0657195 0.50141436 -3.5130079 0.45673606 0.5014389 1.8987796 1.6840922 0.16760185 -1.4079432 0.016118048 -1.394163 -1.4599565 3.3825972 -1.1656395 -1.2067596 -5.607515 2.9588547 -0.65795356 -1.0806856 -3.1926959 3.208815 1.4092705 0.9323242 -0.53292125 -0.29212973 2.9741652 1.6895939 1.0960028 0.046030384 0.19391702 0.1291991 -2.243281 1.8454939 -1.7885194 0.1846618 3.09139 0.6616578 -0.27043235 -0.69413745 1.3625437 -0.98480344 1.9579674
but 1.5694327 -0.8418618 -1.2480787 0.059500556 -0.24771631 -1.3871418 0.4617281 0.96142364 -1.0118916 1.0432792 -1.3043331 -0.20227207 -0.59991264 -2.289073 1.1800958 0.17962049 1.1020377 2.9884975 -1.6597812 1.2311441 1.976385 -1.6228677 2.0934715 -1.4463568 0.34166437 0.4409923 0.78135675 0.50579816 -0.89396065 -1.5546529 -2.2564292 -1.9147041 -0.4128302 1.9375832 0.2714063 0.511181 1.9389372 0.5844093 -0.26181707 -0.7552475 -0.563444 0.2049324 0.5645114 0.28139374 3.2342489 -0.34120017 0.91790134 0.5819606 0.7894438 1.7029278 -0.95095503 1.5529209 -1.2002076 -3.5041156 -0.1589958 0.33343068 0.6115062 -2.6412122 0.70543575 -1.8648062 -1.4092182 1.740837 1.7448511 1.9050987 0.8450346 0.7514533 0.8349407 0.98465526 1.1619357 -0.24564753 -0.21053083 -1.774257 0.59685254 -0.2632958 0.84886485 0.9542189 1.783843 -0.79797554 -2.048172 1.7984908 -0.12636086 -2.451139 -1.8024727 0.30312636 0.12530173 0.833911 -2.236751 -0.29014248 0.7454297 2.175999 -0.9612461 0.9387357 -0.06263754 0.20644064 -1.2751983 -0.41430286 -1.5502452 1.9705635 -0.68017304 1.0519876
you 5.023229 2.3546984 -3.04008 2.7608323 2.4284744 -3.895201 -0.11390104 -2.6870868 1.7660303 3.8578582 1.5853697 0.7759583 0.8715818 3.1078875 3.7317848 -0.8510039 0.18859634 -1.216777 -0.2786333 2.6148944 3.0038707 1.0878284 -1.6312783 2.5427918 -0.5983811 4.2376637 0.8706961 -0.1698564 2.1558626 1.5120867 1.7730283 0.3248242 -2.3185344 2.3429317 -4.6754603 -0.7124374 3.3310654 1.8157996 2.8416238 0.6675149 -0.13328299 0.62040895 -2.146347 -4.5605125 1.6248388 -0.85505503 3.3706985 0.21577585 0.6528691 2.1920326 0.09679347 2.0993118 -1.8028427 -5.6142187 0.25664052 2.7753048 3.8625205 -0.61305344 4.213668 -0.85855496 -0.23254468 2.7974102 -3.7188904 -3.0755498 3.8790412 4.567136 0.63852966 1.1782583 2.132734 -2.3750288 0.7890046 -2.7467072 1.1749221 -1.84759 -2.4512157 -0.11634059 -1.3683645 -0.43178755 -2.7330418 1.2981201 -1.0773354 0.33835027 -0.19185531 0.05253842 3.2925587 -0.45263085 0.38514107 1.261357 1.2202065 1.7921757 1.6845006 -4.688507 -0.39173618 1.1558927 0.04590395 -0.21826993 0.36807787 1.3129556 -2.4026875 0.9096715
not 3.6744144 0.3960585 1.0669106 -1.0329915 -1.136925 -0.19798803 -0.32171243 -1.6949041 -0.11980293 2.1939416 -2.512631 1.1219897 2.2092178 0.65928465 1.1614169 -1.282731 0.23280463 2.533513 -1.3273841 0.37855724 0.37958732 -1.5214745 -0.12350048 0.5726179 0.3161593 2.1428459 1.0707142 1.0069895 -0.75435793 -0.039740082 1.4340994 -0.54578537 -0.8924208 -1.1488603 0.16508865 1.5210433 0.31142792 0.5539073 -2.506326 0.051626857 0.89357144 0.755489 1.8622297 -0.08979416 1.2437913 -0.15555972 1.8385882 2.2709932 -0.07523044 1.329319 1.6151732 1.7436184 -0.33538488 -2.693874 -0.5662426 1.5357883 -0.12943943 -0.38390315 2.6479304 -3.0888314 0.18430632 1.2497468 -1.87065 -1.8894434 -0.5388835 0.08020118 0.43848455 -0.29844037 0.25116438 0.111364625 -1.5822468 -1.2418501 -0.2535557 1.399712 -1.441507 -0.7731182 -1.7352628 -1.036509 -0.98725563 4.1041565 2.1778953 -0.4417328 -1.4468212 0.9124028 0.081970334 -0.8027507 0.737122 1.1134224 -3.3663206 3.3200192 0.37122712 0.5372149 1.4997796 -2.8687985 -2.0228202 0.37022778 -2.1736372 0.56335324 -1.2932858 1.4316208
do 0.8077386 0.27476767 -0.4810404 0.78340393 0.73748124 -0.47529855 -0.7908935 -0.8124267 0.096315965 0.64226896 -0.4353235 1.1818867 -0.34607038 -1.5398451 0.81124175 1.9572102 -0.89322203 -3.024078 -1.4356169 0.7304926 2.046479 -1.383819 -0.007568261 -1.6096697 -2.5330577 0.118154764 -0.9321987 -0.6311731 0.8533448 -3.004714 0.64862967 -2.2222862 -1.232662 0.43358576 -0.5152993 2.8548117 0.2453841 0.0408167 -1.8125429 -0.33906126 -0.929953 1.7510943 2.5564165 1.6679603 -0.9437562 -1.5520586 0.7356219 1.5723593 3.209646 1.0573059 -0.7059786 0.96093583 0.9290157 -1.8899115 -0.06492073 0.9232861 2.2894518 1.4583069 0.9873667 -0.22031638 0.3724751 -0.51973796 0.2593363 0.17339712 0.18070544 1.4321659 1.0746398 0.64375263 0.3709152 -1.0932312 -0.98266566 -0.92238325 -0.2944348 -0.14059281 -0.4378788 2.6835828 -2.266893 2.5200586 -3.1933165 1.3269258 -0.03737292 0.80001575 -3.8898396 0.43121278 3.9775527 -1.7168738 -2.4271922 1.1781619 -0.050190948 1.3366092 1.8493102 1.0878985 0.2904809 0.37704027 0.42636952 0.5849101 2.6508212 -1.103661 -0.5944568 -0.19483191
so 1.3830792 0.22359039 -0.072914094 -0.015990242 -0.85724276 -1.4591851 2.5786002 1.210042 -0.27326968 2.9891245 -0.7498366 0.7876884 -1.2252476 -0.7397736 1.4201326 0.8559903 0.76548404 1.7718021 -0.8470655 0.16165262 0.043300338 -2.2891402 1.2445071 -0.078117415 -0.7156564 3.0423522 -0.77612466 2.3620687 1.2619736 -1.482438 -1.0759003 -1.86512 -1.6911367 0.19150095 0.7453609 -1.0550045 -0.8885933 2.9395416 -1.0512367 -1.7529966 0.3519799 0.41001403 2.6691182 0.6956359 3.109974 -0.31562313 -1.1816896 -2.0041273 1.4843574 0.8801427 1.0609506 0.41442087 -0.25069025 -2.619965 -0.8102064 -0.27198792 -0.09990349 -1.5192658 2.1918275 -0.28752136 -1.068972 0.95585155 1.8831745 1.4237307 0.18132593 -0.17679258 0.9569125 0.2820419 0.7531832 0.64845943 0.23716775 -1.7117708 -1.203216 -1.4289461 -1.8841617 -0.29885995 3.3235705 0.7837431 -2.7074196 1.7863752 1.4999874 -0.5859636 1.4342872 2.5285814 0.5466881 -0.2865716 -0.9764553 -0.10249747 -0.13128383 -0.5359569 -1.5574859 -1.3348149 2.512023 -0.5864497 0.7308339 0.33419916 -2.0121827 1.9492906 -1.2679216 0.9212193
as 1.539473 -1.4659965 -0.7064225 -0.05074541 3.0801167 -0.40532026 1.906724 -2.8288374 -2.844728 3.1181905 -1.0423354 -2.4422228 0.91006356 -1.7313411 -1.2071382 0.053049743 2.190065 0.09876711 -0.5666773 -2.048839 -0.4860598 -1.9332645 0.093546085 2.5240977 -1.535425 0.0705088 -0.36530203 1.4797823 -0.10112283 -3.9052453 -0.3636182 -3.1501484 -2.0343559 1.3096892 2.5465531 0.47427016 -1.4860581 -1.2955828 -1.5874555 -3.166536 0.53325576 -0.77313596 4.4031615 0.053988058 2.4327762 -2.7044003 1.2059557 1.72653 1.4022036 -0.12049444 -0.93037975 0.97865903 -0.4712359 -1.144079 -0.49573424 -0.60773414 1.9087003 1.2841154 3.1647558 -0.5145082 1.17848 -1.2101003 0.49386784 3.1654527 0.26627153 2.323408 -1.5644919 -1.7897314 0.44262132 3.1576767 2.2039063 0.75429314 0.06949038 -0.67576313 -1.403367 -1.5044783 3.1184745 -0.7975546 -1.6290292 2.521209 1.6662114 -1.8559798 2.0057888 -1.1002448 1.0713583 1.4082078 0.044885162 0.9862469 -0.6414815 -1.4479749 0.07509761 2.109789 3.105212 0.6727292 -0.82712036 2.9571679 -4.1305466 0.24769893 -2.1619992 2.9334316
are -5.1366754 -3.2154536 1.4434197 0.4311577 4.007854 -1.0119785 -3.1310043 -3.4405444 0.075165346 0.22982727 0.5140266 0.048381276 2.7499762 1.5175011 2.8201792 2.821754 2.7817547 -0.9298138 -3.0675886 -1.3338493 -1.6968879 0.10237968 0.65162784 0.41389042 0.55960053 0.49375552 1.9605459 -1.216588 -2.992444 -0.3658445 -0.67434037 -0.497398 -1.0008487 2.0118198 0.5011327 3.1693535 0.2183256 -0.62118953 -0.24173231 -1.6501701 0.02389627 -2.7669504 -0.7001923 1.1818291 -1.5286962 3.2771864 0.692393 1.5967137 -0.527833 2.566342 3.468973 0.87224716 -3.80776 -1.2400653 1.0478684 0.88133216 1.7196246 -2.186116 -4.2275624 0.3558397 0.9048292 0.49572647 -4.7589555 0.067718945 -1.8284521 -0.8508302 -0.27801788 1.7417186 0.17735599 5.3468914 0.6759863 -2.3969195 -0.80970985 1.2705044 1.8549814 -0.33967483 -0.78786683 -2.4507947 -5.0952077 2.9207401 0.9006545 -1.3709776 1.8254844 3.3826454 3.3800743 -3.2192917 -1.910013 -1.6275258 1.4344517 0.76698416 1.451531 -4.2074065 0.89797175 -1.6741607 2.7911994 2.2087123 0.26347873 1.4599824 4.060263 -1.4227054
use 0.81170696 -4.08525 -0.6594485 0.81142604 -3.0547073 1.1361895 2.5295248 1.7346253 -0.40624693 -1.8153592 1.4966023 -0.3826733 -1.695727 2.0469148 1.1994913 0.8737381 2.1297226 1.8246595 1.3220369 -0.98682743 -0.68608737 -0.35083053 1.3736348 1.7751601 -1.1049649 0.6480947 -0.5436133 0.30378324 2.110053 -2.0144968 -2.517505 -1.222591 -1.4373151 0.62073326 -0.06056939 -0.4902919 1.0850133 1.4544908 0.9424837 -2.8574853 -0.071157694 -2.078288 -0.34053776 1.4239414 -2.2406034 1.4006456 -0.13643537 0.56442714 -0.3818432 0.4989828 -0.9145393 -0.32595572 4.4538245 0.029454181 0.465234 0.623009 2.2480354 0.3188348 -2.127882 -1.6844479 -2.2237716 2.7162726 -0.6328803 0.913456 0.5895377 0.33012584 -1.7128191 -2.252218 0.18943766 1.7204087 2.1910129 1.7249556 1.8977315 1.3917538 -1.427699 0.40291718 -1.3978543 -0.74075043 -1.3162392 0.59414005 0.60158 -0.14037728 -0.041231494 -1.7809823 -0.19580135 -0.23992188 1.2469152 -0.07393404 0.46972463 2.1777153 2.5768619 0.9234964 -1.4340092 -1.5568786 -1.0478641 -1.0224844 -0.07445282 -0.9639288 0.7463726 -3.0703504
get 0.6122278 -2.2388606 3.2702656 0.2902171 -0.19444115 2.124024 3.4641197 -0.5737707 2.64483 -2.7300577 0.4175191 -2.216021 -0.23887317 -1.2360384 -0.34155375 2.863744 0.053402796 2.449013 2.405847 0.6145365 -1.205461 1.0616938 1.1877687 -1.2062199 -3.612613 1.9672768 -0.25287417 0.94643927 -3.0383737 2.2528977 -2.1089125 -2.252074 -0.50342906 2.7269936 -0.9453172 0.77931994 0.5798573 0.9386534 1.9358461 -1.3033538 0.6160325 -0.4744629 1.1880528 1.8316995 -1.7091967 2.3052783 0.39750907 -1.944408 -1.1606632 1.8664596 1.8839873 2.467274 3.4020731 -0.40994564 -1.3802218 1.3928084 1.5159978 -0.64797664 -1.5417391 -4.1766987 -0.811175 1.3378897 -0.4357352 1.5886344 -2.7744303 0.7071879 0.90415156 0.73960185 0.04151258 -0.47510502 -0.021840718 -1.1086248 0.54943424 0.06454359 -0.8724615 2.7785766 -1.666928 0.54220605 -2.5412407 -0.1358099 -0.28006834 1.9403903 0.16786055 1.6990324 -0.34286365 0.279716 0.40474728 -1.1143532 -0.83165836 -0.6896062 0.041957278 -0.8847343 0.53906465 0.4849505 -2.4007988 2.8560073 2.6452856 1.160571 -0.13597433 1.5386556
one 0.50057584 1.1515433 0.5869609 -0.19710845 -0.860001 0.070990846 -1.017935 0.77888966 -1.7181854 -0.636804 0.94878733 0.8504831 0.25018528 -0.96815765 1.3305198 0.6074197 0.7884876 0.9083217 -0.6684419 -0.39234486 0.974539 -0.78053445 2.4855096 0.31814066 -0.5112413 -1.1382754 -0.5075501 2.0243711 -0.0029336452 -1.2608054 -0.7243529 -1.746261 -1.3640947 -0.48468322 1.1277164 0.13369623 0.09595254 -1.9404895 -1.3083664 0.5754415 2.7625477 0.12045394 0.2405017 1.6453509 -0.020438466 2.1025171 -0.5031768 0.5726406 0.26228708 0.14960116 -1.6146052 1.5593897 0.78859144 -2.3560183 0.6648454 -1.2851876 1.3060621 -1.5348568 0.6696908 1.0484089 -0.12864898 4.5237775 0.416906 -1.1267298 -1.1640873 0.64832795 0.7980664 -1.0718765 0.83544683 -1.4582945 -0.66825354 0.43311754 0.21667941 0.5335179 -0.51514304 1.4720222 1.7639713 -0.14596038 -0.80084395 -1.3641798 -1.2015544 -1.4120326 -1.4054865 -0.21328191 -7.54152e-05 1.1218619 -0.66807824 0.6582245 -0.46399024 -0.84111124 -0.23766886 -3.282966 2.36551 1.3692702 -0.19725594 -0.6143059 1.0650026 1.9504826 -1.5061382 1.5977292
they 1.1158326 0.45789552 -2.2345533 -0.16733271 0.5488953 -4.346282 1.606948 -1.7117901 -0.810185 1.0120889 0.33541128 -1.0314677 0.2508935 1.3306797 2.9719095 -1.4656132 -0.13321017 1.4567505 -1.9923252 4.0384674 3.019475 -1.1309944 -0.31183183 2.1498504 0.5286008 0.34677246 -1.0641165 3.447649 -0.812508 -0.7009939 1.7216829 -0.33953598 -1.154637 2.0840416 -0.6088728 1.2425241 1.8137313 -2.1579592 -2.636749 4.596848 2.1075988 -0.4694565 2.3783674 -0.26306722 -0.62246794 -2.2829168 0.13596429 2.8389099 0.8700987 1.3562486 -0.6546263 4.2915783 -3.0431237 -3.5299425 1.320039 1.0283653 1.853937 -0.07766831 0.6612029 -2.3552108 -0.85004926 -0.13431285 -2.8740394 -0.6089773 0.9971672 0.7267101 -0.8286266 4.6706843 0.53990155 -2.1994886 0.7524279 -2.8229568 -0.087071896 -0.22489542 -0.37098062 0.4249114 -1.0676042 -2.2425442 -3.2299204 1.9691808 1.7216231 -0.3029852 -0.4061917 -1.3762952 1.2616723 -0.94830936 -2.4409754 -0.3622595 1.2719198 -1.0936288 -2.1473837 -1.0224435 0.96176094 1.0515255 3.0909483 0.24916454 -0.24453449 2.6653883 1.0781544 -1.1550069
product 0.6818594 -1.9265596 -2.778129 -1.9418354 -0.29507464 -2.0932004 -1.1034584 -3.2926176 -0.97251874 3.1370091 0.16390556 -1.0168155 1.9423271 -0.30964324 1.5100387 -0.5179915 1.9249623 -0.5822641 -2.0785036 4.112504 -0.28175384 0.10392425 1.2542236 0.44060355 2.8825533 2.5628119 1.2017435 1.2541461 -0.06122071 0.016936475 -2.0936372 -1.0493336 1.7611219 1.6151663 -2.8431115 2.045739 -1.2916301 -1.5924414 -4.359768 -0.4310862 -1.4706314 1.8890474 -1.7214229 0.7240653 4.6575713 -2.046175 0.29335284 -0.5579501 1.8512208 1.7939563 -3.1896162 1.7313586 0.19843544 -1.0628347 -1.0576514 -4.737704 -1.7886728 1.3835531 -0.9796094 0.045603737 0.62320536 2.567391 0.7172494 1.0693787 -2.16902 2.5217938 3.184061 -2.3512642 0.5165375 -4.000002 -0.5295526 1.4235908 -0.44857806 -0.86053836 -0.33145732 1.0443329 -0.024958408 -0.4479765 -0.6477495 -1.7874573 2.4900925 -1.0313907 -4.2703404 0.57937473 -0.94759274 1.3686907 1.4358274 1.2081214 2.5361817 1.1161889 0.4641624 -0.6247108 1.7444447 -1.4483372 -1.1654104 0.46831918 -1.3624791 0.6028961 1.0729704 0.41281855
we 3.3738184 -2.1178377 -2.7124155 2.1569118 -2.4397385 -5.517226 0.25697476 3.542916 -0.4495653 0.49799344 0.66375494 0.5642187 -0.47563604 1.9058208 2.0265627 1.3791821 1.0239172 4.125998 -0.5564699 2.4103036 2.1300282 -1.4049213 -1.2640849 0.5064306 -1.8849703 -0.3264527 -0.56027544 0.9018494 -0.21576633 0.7402947 2.648743 -0.46858844 1.7402946 -0.44371033 -0.005894243 1.0959475 -1.1641697 -2.0361269 0.024112081 1.8291881 0.5187955 -3.3820326 1.6958456 -0.8860415 0.21768829 -0.79534435 -0.54177153 -0.30016035 2.0915918 1.5858362 -1.8133241 5.3396316 -1.7886863 -2.5610614 0.103766315 -1.7840333 3.8752716 -0.56211245 1.8115956 1.3983831 -0.18171106 -0.29429823 0.4873251 -2.330682 -0.40643734 -0.8204909 0.9159176 3.3608296 0.20820567 -1.3062176 -0.011712859 -1.3626044 1.4886696 -1.2305605 -1.3380272 0.31735888 -0.25773966 -0.29488713 1.1557004 -2.2909799 -0.9890817 0.15381542 1.3425866 -1.4122787 2.105991 3.1798704 -0.7438998 2.5642502 -1.2549781 -1.8006264 -1.7877085 -3.7221932 0.6732169 1.8069206 3.2086632 -1.325107 1.3455622 1.5396861 -3.1554165 1.2426312
like 1.2596422 -0.18501036 -0.41651425 -1.02785 1.9579186 -1.299771 -1.9103388 1.5210412 -1.5205412 -0.4393678 -0.286141 -1.6811292 -1.5042884 -0.8444126 -2.4587057 0.50209963 -0.030069355 -2.1829174 -0.5581611 -2.5400946 0.19632044 1.6404133 2.4586494 -0.70616287 -2.9208586 0.061009478 2.011321 1.5478889 0.05175793 -1.8700393 0.36380532 -0.18051681 -2.889327 1.0252435 1.6532152 -0.09244329 0.0014777766 2.3012674 0.71790946 0.936284 -0.79189056 2.3821967 -0.09413757 0.9669399 -2.3521626 0.75140756 -0.52180594 2.2702327 0.34376523 -0.87198716 4.1564445 -0.9715563 1.8112675 -3.065154 -2.4576488 0.040907405 -1.2951407 -0.15175365 1.8123366 -0.2508751 -0.19630413 0.6812344 0.3433851 -0.099874996 -2.2325256 -1.2083234 -4.2074337 1.1355925 0.28719106 0.65676314 1.467977 -1.7221411 1.278368 -0.77457523 -1.225149 1.6772417 0.4757456 -2.7163763 -0.72723484 4.632537 -0.0715066 -1.4486856 -1.4066772 -1.0294256 -4.7810254 1.0329405 -0.7814344 -0.7987195 0.08669704 1.4859381 -1.0956376 4.9147077 0.36344784 -0.6852129 -0.7308775 2.285043 1.3118676 -0.7955187 0.09686153 -0.3856346
very -2.4545891 -1.7328049 0.7285437 -1.765905 -2.6213548 -2.12219 1.9891324 0.2990114 -0.46068212 3.7676516 0.81851304 0.577765 0.075312495 0.07511224 1.6573797 -1.0455024 2.54805 -0.28272268 -0.5536607 0.829296 -3.047765 -2.1088157 -0.40853867 -2.2542465 0.71076745 2.6530666 1.0865763 -0.8712435 -1.875752 -0.66694665 -0.7114864 -0.57328373 -3.4526622 0.16939887 0.21816938 0.3156186 -0.110835165 -0.21679284 -1.3734325 -1.4758464 3.098815 -0.35156706 2.9028523 1.5410632 3.6651065 -2.1839826 -0.8423841 -0.22639117 0.32293135 2.9421594 0.32627308 0.34542575 -0.89210737 -0.40629637 0.50351596 -0.15463477 -2.943517 -3.0766857 2.5735106 0.6420983 -1.1231539 -3.4174197 -0.8360054 0.26872686 1.8978646 2.225945 0.7995896 -1.0700359 -1.5495716 2.4295738 -0.8751964 -1.8106351 -3.9362028 2.4629776 -2.6565182 -2.1350896 3.9788873 1.6755681 -0.5920536 2.8725789 0.12928706 -2.051051 2.694265 1.1080117 -0.12739977 0.67341244 0.39989161 2.5933516 0.997467 -0.11072554 -2.444356 1.0538208 0.91409415 -0.65615565 0.30676755 1.2629212 -3.2630217 0.11565293 1.1093137 -1.9259512
love -3.8648062 -1.202875 2.5097022 -0.28630307 -0.8209888 2.2936752 -0.565999 3.435912 0.42371136 -1.4957798 -1.277476 -1.9775108 -3.1482172 0.9906549 -2.782282 2.402429 1.9667678 -0.48646438 -1.6050551 -3.4828646 0.33790195 0.9322943 0.32636014 0.7868847 -2.3045504 1.010158 -0.039040204 1.0978855 -0.91149336 -0.67742324 0.08738017 -1.2906249 -2.001958 -2.9684289 2.5650299 -0.43870795 -4.024379 1.9228848 0.5601732 0.10600967 -0.3814374 0.66765195 1.4316529 0.506497 -3.0577738 1.8921667 -0.69855034 2.316909 -0.42624423 0.08934149 4.3143044 -3.1773489 -0.09821257 -0.8256388 -0.2610797 -1.96207 -0.55392516 0.5502434 -0.7064378 1.9711353 0.04320847 -2.8605878 -0.8947977 -0.35098913 -2.7332003 -1.5862778 -4.7621326 0.8096889 -1.3279313 0.9263045 1.4360852 1.0906277 1.2974212 1.9913827 -2.3822455 -0.055770278 0.30267692 -0.71571094 2.4867089 -1.3563656 1.5034838 0.1840496 -1.097114 -2.201936 -5.498773 -1.322438 0.8688734 1.2895212 -0.0205671 -0.22929068 -3.8693166 1.5795475 -1.2363636 -1.1809655 1.2368991 -0.3946833 1.8219591 -1.196652 1.8528417 -1.6927922
at 0.9496281 -2.086276 -1.7851774 -0.7825627 -3.3206835 -0.2352796 -1.3382506 0.20226876 -3.717238 1.266624 4.4236617 3.8672955 -3.7044973 -1.3890381 -3.528461 -1.1514721 1.8376585 1.8529112 0.08779596 -1.920203 -0.9176255 -0.57661617 0.42583537 -0.57531625 -0.9091798 -1.4724287 1.8147063 -1.6019098 -1.6416115 2.7502232 0.21014977 -2.341388 -0.10006577 2.3806167 1.8885411 2.1034486 3.2136836 -1.2795097 -2.3728235 0.46307942 -1.5062144 1.3725227 2.1514566 3.552101 0.54090714 -0.8952166 -1.4547088 -1.4954609 0.8029808 -0.30064306 -0.86845726 -1.3535227 0.62245554 -7.3126087 -1.3725057 2.6918936 -3.3783593 -3.2049007 -0.895243 -2.6644404 3.1497047 -0.10973521 -0.39193523 -0.35458887 0.64104325 2.2996585 -2.8328865 -0.5367188 -0.93819165 -3.0457509 2.5240564 -0.24437626 -0.6055138 -2.2608364 4.54528 -0.84797674 -2.3790643 0.4813745 -1.6946435 -0.91822356 -0.24744536 3.398056 0.6810231 -0.07003775 0.36877266 3.4733675 0.8932357 1.8324529 0.9331683 -2.5298445 -0.008816565 -1.277625 2.6922622 1.6919496 2.6220841 -2.1831756 2.549769 0.40829673 -3.546422 -1.316927
great -2.5824842 0.18195558 0.21615717 -3.2744653 -2.2803607 -0.059435453 -0.86670846 -0.55977005 0.91815764 -0.0060077766 -1.9066926 -1.8442621 -0.98575604 0.36293453 -0.90042096 -0.21594015 0.93865174 -1.614204 -0.24841629 1.3480206 -0.06471984 0.05222842 -0.7801084 0.7075618 -4.398056 2.5213108 -1.1953073 -4.2266 0.91635317 0.7220468 3.7031467 0.39272502 -1.2868434 0.4254323 -0.65656704 0.1468367 0.62227196 0.036187608 1.4793713 1.4621589 1.0429991 0.42965445 1.8810102 -1.9759444 3.145986 -0.030195843 -1.1717086 0.39708024 -0.120983325 -0.5196299 0.46427435 1.2506281 1.1828672 -1.0508657 -1.5270054 0.3249479 -1.0611553 -2.949558 1.781741 1.3369124 1.5176059 -1.7098259 -0.778819 -1.8420546 0.5822822 -1.573696 -3.2734044 -0.00048524927 1.4792563 -1.6414173 2.2067904 0.6767035 2.193515 1.524705 -1.6442257 -0.43584758 -0.16344053 1.0916489 3.1058342 1.185814 -0.92849183 0.0910879 -1.9102008 -1.4389558 -3.0773587 1.4783995 1.6445428 -1.0942638 1.4011384 -0.041024193 -0.41903687 7.7282887 -1.1427177 3.3258502 2.4963813 -1.8354754 -1.5553201 1.3408847 0.9195365 -1.6501436
all -0.62028915 0.41073585 1.1087507 1.0919981 -0.71297014 1.0072535 -1.8086855 1.5432554 -0.28782263 0.21126416 1.2023121 -1.037753 0.44000512 0.3656715 2.9253807 2.4963768 -2.2791524 -2.258411 0.47339955 1.3375196 2.4854636 -0.42894378 -1.548485 -0.8106266 -1.1830987 2.8182611 -1.7052047 0.55982697 -1.4928346 -0.9941286 -2.1797419 -1.1533235 -2.9770067 -0.5465504 2.9674604 0.0546093 2.0638793 -0.00796403 -3.1800592 0.15778488 2.4863832 -0.9478076 0.07399137 0.019166695 1.0682218 -4.223007 0.27586752 -1.2764906 0.72560906 0.14112356 -0.1541019 0.9560525 -1.5559335 -0.76990896 0.068633355 1.4528434 -1.0226839 1.0400262 1.7638372 0.5880284 0.22987363 2.1728754 -0.06735337 -0.7463355 -1.3578646 -1.2579832 -0.7895967 2.1338327 -2.4069877 -0.09179163 -2.8587265 -2.3036692 3.2051992 -0.47404045 -1.4586846 0.7127244 0.99923205 -1.5138007 1.0748757 -1.7215291 -1.0829538 -3.420976 -1.472457 0.22986203 1.59807 -1.1051612 -1.6292851 -1.1106555 -1.2653768 0.8566004 -1.1633434 -0.51962936 0.43458423 -0.7416868 0.0985195 -1.4384222 -0.85934275 0.8895795 1.9945042 -0.062134646
when 0.35582638 0.67976063 0.33541128 -3.391068 -1.682813 2.1912181 0.3270566 1.9458156 -1.7930442 2.7958481 0.54812664 2.2737756 -2.021381 -1.2455014 -1.7226727 0.036675565 -3.2985842 0.86713946 0.9814199 0.025265595 -1.215272 -2.5097435 -0.91052485 -3.3927534 -1.6376877 -1.5227824 1.4116676 1.7418349 0.2488189 -0.34698525 0.7923137 -3.4872234 2.9661546 1.7226753 2.9175067 -1.6520656 -1.8773186 0.6359693 -3.8918562 1.0548916 0.77220917 3.0238378 0.23201133 0.9926546 -0.6861649 -1.1689332 -2.493999 1.5952986 -0.0010324159 -1.3506941 3.5488777 0.80105084 -1.7959689 -1.7850474 1.5798243 0.6552233 -1.9528415 -0.86582434 5.7910566 1.4683311 -1.3681653 -2.8962 1.2341056 4.207411 -1.0423398 0.16454962 0.6208732 -1.2294656 -0.25062224 -0.32711416 1.6929537 -3.3499405 1.9409714 -0.046036147 0.58894354 -0.37267995 1.7853805 -0.19509615 -0.093842104 -3.8021636 -1.3788033 0.20781393 -0.5445324 0.08888808 2.6432068 1.4191844 -1.7894837 -0.52863306 -3.0474765 0.8705601 -1.4948488 0.11222668 0.5250251 1.2334839 1.1666428 -1.6633773 1.3233076 0.6093364 -1.8207724 5.170447
just 1.5813088 0.94866717 -0.2517288 0.12297724 0.45408946 0.70075136 0.39465725 1.0745033 -0.60420454 0.2014949 -1.3522799 1.0789272 0.54959977 -1.6093085 0.8164565 1.538256 -0.7841877 1.3907938 -1.5825651 0.47955045 2.9104924 -1.0795523 0.68506944 -1.5311496 -0.012692542 0.1845231 -0.86066455 1.5829856 1.1304433 0.1232689 -0.30696052 -1.558022 -0.7972478 2.499718 2.1194582 1.1979101 1.1144404 -0.2991491 -2.0006652 -0.55103886 1.862037 -0.24846981 0.13654917 -0.7159143 1.3374532 0.07216471 -1.3598015 0.80164313 0.96578133 0.91278166 1.0990592 2.0847466 -0.6753105 -2.0332108 -0.39274514 -0.32322705 1.8407695 0.121714845 3.1733465 -0.6719412 -2.0015182 -0.67748505 0.27222398 1.0524604 1.8622395 0.77767503 -1.1047966 0.08534201 0.97073215 -1.8476659 -0.021050666 -3.1208057 0.39955992 -1.4623638 -0.20101619 1.1152542 -0.5043233 0.3956 -1.2099859 -0.1719356 -0.28880158 -0.3098353 -2.0277784 3.14655 0.17145239 -0.1164169 -1.1583983 -1.3699703 1.1678691 0.55379254 -0.43862787 -0.25926846 -2.5552168 0.020684717 0.043566853 0.3721621 0.03139263 1.6834376 -2.770743 0.9694883
would -1.9200984 1.6196674 0.23796822 -2.330656 1.5473646 -1.1151263 -2.5127769 1.9325651 2.2050707 -0.8499907 -1.6894257 3.8400385 -0.6588564 0.464287 1.8139683 2.2774336 -0.36326462 -1.7263466 0.2193763 0.8456139 2.6586518 -3.333354 -0.24133657 0.6124743 2.426942 -2.0037277 -1.1750934 1.232758 -1.6976228 -3.518892 0.80386513 -1.6163509 0.9704013 0.28393373 -0.113200225 2.3439994 -1.0444771 -1.9893615 -1.6194314 -3.7324927 -0.9618522 2.3640926 0.5411155 -1.7352294 1.2128907 -1.5368403 -1.1812208 -0.022810025 1.048101 3.566199 -3.0150096 3.105478 3.2086918 -1.78634 1.6729965 1.7065215 3.130917 -0.7389582 1.5381086 -0.16917604 1.5861906 -0.003068073 0.6025889 0.75062704 -0.6423733 3.1383815 2.445659 2.6915534 -0.32933816 -2.0077045 1.9287459 0.09442933 -1.5548812 -1.8690603 0.73479605 1.3093189 -1.289707 2.9199052 -2.5926507 3.3377116 0.10922694 2.149766 -5.4034524 0.25152186 0.5179848 0.85031766 -2.6926134 0.59463894 -0.49582955 -0.073156685 -0.6142729 1.2713374 0.5594283 -0.6643962 1.8572932 -0.38517374 -0.8231547 2.329603 -0.76443744 0.34300017
or 1.3541037 0.40089878 0.3174949 0.39862126 0.71958065 -1.6164268 0.2753185 -1.8409374 1.1621314 -1.3888946 -0.09116002 2.1739 0.034397475 -0.261703 -0.4595147 -2.5974598 -0.29608208 0.3931036 -0.79541427 -0.55589885 1.1348159 1.0734835 -0.75640243 1.0161034 -2.1885402 -2.7300253 1.504173 0.7274305 0.16742544 -1.6956115 0.06164454 -0.2907856 -1.0138863 -0.13220896 -1.6668118 -1.3269607 2.1157942 -0.47864246 0.8603191 -0.8067606 -1.911176 -0.2994479 -2.253798 -1.0156685 0.68148404 -1.4207245 1.8507742 1.0000608 2.5221815 0.37818408 2.202719 0.60202426 -0.30074543 -3.6679382 1.8466383 0.48439047 2.4908695 -0.41701835 2.8833666 -1.8664626 -0.4636447 2.7562091 -1.0048445 1.1466069 1.1160109 1.4512582 1.0221372 0.0043216622 -0.77736694 0.49814275 1.2288203 -0.8262362 0.027128277 -2.9945028 1.8575279 2.537372 -1.524844 -0.34966016 -1.7110626 0.9996983 0.36978987 -0.05097092 0.3486256 -0.3233603 1.9571832 -0.03303939 -0.4068515 -4.477943 -2.6145577 1.2292272 0.2438744 -0.8021399 -1.3591179 3.231162 -3.6127055 -0.4967709 -0.4191349 -1.4915024 -1.6491189 -0.87060964
if 0.42493466 1.1607438 0.9873693 -1.3426914 1.75557 -0.10433912 -0.5518436 -2.7164354 -1.7593219 3.113886 -3.5871348 1.3984178 -0.05275235 1.4672624 -0.74764454 -0.2657602 -2.9393458 -0.48067942 -0.81801057 0.80853856 1.7630422 -2.139239 0.0039275503 -1.8995893 -2.0362842 -0.5666366 2.438648 2.1453044 0.95216924 -2.1404893 1.3106647 -4.3872714 2.2570865 3.8741875 -1.2471334 -0.87198883 2.8933415 1.753167 -2.4303563 1.4600756 0.5435028 4.313626 -0.6210993 0.72020173 2.3849516 -0.184759 -0.44165182 1.1459353 -0.8661074 -2.7509966 2.7837732 -0.18386687 -1.5955329 -3.2036657 0.27554208 3.2059367 0.96814305 -1.2089092 6.2335973 0.4084907 -2.1721108 -0.1643882 -1.7518247 1.228412 1.0889865 0.5015526 3.8224769 -3.3524628 2.0568547 0.38446248 0.19356406 -0.1627347 3.0090892 -2.0725489 0.2512582 -1.7968279 -0.23705563 -0.76287407 -0.3668193 -1.9466643 -1.8318547 2.407881 -3.009963 1.4579039 4.0226035 -0.8219758 -0.042241603 -0.31899577 -3.8617744 4.228657 -0.5693683 1.1936648 1.570529 -0.84212637 -2.5766573 -1.2268907 0.518693 3.3127031 -1.3424917 2.6967506
ha -2.2372162 -0.5786726 -0.8253806 0.69330037 0.3031379 -3.2089925 0.5596876 2.85632 2.2384284 -2.2044168 2.8471274 0.34714094 2.2407758 0.014754915 -2.7731264 3.3276052 0.1916353 -0.024813239 1.5248731 -2.3088644 -0.838834 1.9219544 0.08300186 -0.7414738 2.2981207 -2.9943771 0.91760373 1.0817739 0.47394535 1.2225989 0.30137742 -1.3143502 -0.8963247 -0.6098278 1.7112302 1.8639323 -1.7233384 -1.2423753 -1.3045043 -1.4443426 -2.144932 -2.188303 0.020171124 -0.36928627 1.3920892 -2.343956 0.3540865 1.5881081 -2.6607811 0.36733466 0.9466023 -0.81770366 -1.4036758 2.0647674 -0.29386562 -0.47834176 0.20762941 -2.6389399 -2.2097535 -0.94803953 0.11502785 -0.806401 1.3278778 0.27093124 -1.588773 -3.4289064 2.618446 2.441857 -2.3719208 1.5036602 1.4147329 0.9760005 -3.7039483 0.4880878 0.5429047 -0.037319142 0.8827067 -0.6678892 1.7530019 0.6309227 1.9710555 -1.0429875 -2.1900406 -1.9693071 -0.93818533 0.82354003 1.22039 -1.3732074 3.4119198 -1.8171481 -2.112127 2.1940887 -3.2158632 1.6957862 1.4744012 2.0861623 -0.74416184 0.7984449 -3.5857658 -1.804018
buy 1.7190089 -1.2828596 3.6630695 -0.4027936 -1.9004902 1.1240805 1.8071613 0.3016197 -0.13243562 -3.517439 0.26974005 -2.9854012 -0.4188013 1.9508615 1.8317391 3.6936047 0.9892153 2.061167 -1.8972392 1.4952594 1.6360552 1.8310534 2.9310439 3.158491 -1.407315 1.0163153 -0.6715551 2.4049973 -1.3512559 -0.4021037 -2.2054038 2.4143026 -1.1363451 0.67584974 -2.654765 -0.35909042 -1.3321235 -0.4821427 5.883213 -0.7579927 2.0485308 -1.4887427 1.1337135 1.9728029 -3.0895193 3.7791445 -0.37424815 -1.0915579 -1.8799641 -2.2948775 -1.4825181 -0.9831775 4.4552855 1.4309279 -1.8894958 0.23955257 1.9533339 2.4983273 -3.8994389 -2.5412676 -1.7191402 1.8636237 1.0319811 2.1216028 -2.1920614 2.9860165 0.7942661 -3.6922836 -2.0714414 -0.6224959 -0.7146182 4.591819 1.2600352 1.4685063 0.93472105 -0.17792732 0.11196257 -0.19813362 -0.2496197 -0.2697514 -1.1039593 1.6672014 -2.2866678 2.2976391 -2.680374 2.3532224 -0.9528235 -1.4306769 -1.1679674 -0.5674556 -2.3955727 1.610667 1.3676894 -0.7803309 -0.2737222 2.3258386 3.0805113 0.5042399 1.6154951 -1.9334866
can -2.6163504 3.4812725 -1.5972834 -4.328601 2.816147 -1.5023057 -3.6988842 1.373277 1.9041008 0.48388255 -1.60811 3.9915538 0.002909377 0.23498854 -0.049032558 4.278203 1.1579134 -2.212888 -0.9523009 -1.0037661 0.5471418 0.3845903 -1.0769988 1.3556777 -0.8480161 -3.2605376 2.2170572 0.7569096 0.62608355 -1.0378026 -0.59836006 -7.1730237 -1.8190339 -0.3587816 -0.473286 0.17021762 -2.275313 2.156857 -1.5889521 0.14133081 -3.2722871 1.0559399 -0.989734 -0.7000681 -2.7388093 -2.8853545 0.47451952 2.4375944 -0.6236229 0.07637288 -0.26800302 1.1461686 -1.5690981 1.3534155 1.200929 3.7729018 -0.41118833 -0.72370684 2.2123086 0.7963387 0.85886526 0.37288392 -1.773664 -1.0289139 1.4149296 -1.5515609 1.4201468 -0.43766952 1.2397767 2.7728403 0.72548074 -0.2835665 -2.6699338 -1.1601837 -0.41785836 1.6704417 -1.5860254 -0.45752 -3.1250122 0.67601526 -2.4313602 1.1595417 -2.3003209 1.0812691 2.7626207 -1.1958791 -1.45398 -1.0016868 -2.222647 -3.7623897 -0.5179405 0.4344341 -4.6191173 1.5640187 0.3028253 1.9206434 0.85729426 -0.67488384 2.151269 0.3781035
he 3.0536535 -0.54259825 -0.24939184 3.8360136 0.7825084 -2.124904 1.9859122 5.062396 -0.274816 -3.134274 -0.37246424 0.29439968 -2.88754 -2.3590026 -2.4695628 1.1466691 -0.9329108 2.4333289 1.0163463 4.0974483 2.9728231 -4.152662 1.0456686 3.134095 -0.22570765 1.3581172 -3.611775 1.616332 -1.7611375 3.5108473 -0.2804707 -1.519721 3.2568886 -2.1348934 0.6031593 -1.6189885 -0.4450453 -1.7340087 -1.664854 -1.2896615 -0.2711094 -0.43290442 0.82841134 0.25833777 0.9096598 0.23977041 1.456843 -0.739206 1.3716823 3.3193145 -2.8406484 1.4685806 -1.5415971 -2.9642217 0.89051986 -2.5719683 1.7259699 -1.6761373 1.9827033 -1.0076782 -0.984252 -4.0697136 -0.05988323 -6.1607223 2.3790927 -4.8663163 1.7013428 2.0133858 -1.3343054 -3.9195478 1.004649 -6.1356306 -0.6292058 0.8905692 -0.2398903 3.164601 -1.5578407 -2.9403365 0.9155328 0.2419597 -2.4231002 -3.6316617 0.92055655 -2.7100933 0.38047236 0.11164073 -3.4078643 4.270154 -2.99486 -2.1614022 -2.2931519 -3.5084045 -0.349077 3.0949192 -0.9942139 -1.0250685 -1.6823455 -3.1275342 -4.2885766 2.3431962
out 2.9767408 1.405938 0.53510076 2.1414955 -2.761883 1.8366135 -3.6382613 0.76042706 1.3342266 3.733478 1.3804828 2.8138828 -3.268259 -4.2597528 -1.513389 -0.49576813 2.3986015 -1.1842525 3.1252775 -3.912077 5.1955442 -1.2818156 3.2230053 -0.65381944 -2.1319022 1.6154932 -1.7752856 1.3713461 2.1626663 -0.4041696 -0.03518953 -0.5682065 2.9582226 -2.3332388 1.7751352 -0.99221313 -1.7560498 -0.22312148 1.0072916 -0.6425456 4.832971 1.318007 3.1312988 -2.0377998 -0.0061298353 -0.15840536 -1.1722918 3.8257606 0.35045558 -0.48831904 -0.8982315 -2.3362591 0.60681075 0.34641546 3.2090921 -1.9225823 -1.5602314 0.3741316 0.806961 -0.1647277 -3.9805331 3.744497 -3.566578 1.7462664 -0.7029258 -3.2172444 -2.2665448 4.75823 0.5601954 -3.1076722 2.564594 -3.486825 0.32166916 -3.003453 2.9919393 -0.9372433 0.43537974 0.12688014 -1.5594448 -0.70322233 -0.5600011 2.702297 0.031496193 1.9923306 2.999576 1.6890317 -2.1551669 0.20981216 0.22388336 1.9726079 2.2817404 -4.511571 -2.2755213 1.5537965 0.6217661 -1.0158306 -0.77621436 2.5403903 1.9194297 1.598137
them 0.8686106 0.095055036 -0.6584018 -2.0361779 -0.6043014 -1.7972811 1.2526361 -1.1679882 0.51149505 1.7090067 -0.02361636 0.6744237 -0.94577277 -2.8523016 3.4265718 -0.71192104 -3.43596 2.746312 -2.583761 3.0924268 2.9772992 -0.65165246 -0.008826701 2.557122 -1.2281492 0.2913544 -0.07225935 1.6542399 0.65941405 -0.18821555 -1.9797492 -4.731648 1.6013588 -1.0892448 0.7088943 0.6090803 -1.0681647 -1.2042546 -1.5486948 2.3732808 1.2388476 0.6678618 1.210682 -0.59470004 -1.6108614 -1.0744724 1.0167341 -0.5530213 2.4297595 3.0915377 -0.051302694 1.2283125 -1.8234403 -2.1387587 0.9391338 -2.2089581 1.2486147 -0.24549638 2.1011026 -0.23240528 0.76835495 0.28853878 -1.3269976 -0.003635635 -0.10548901 -0.15361843 -0.36594865 2.205505 2.286938 -1.1131173 0.56047195 -4.0054436 1.1536123 -1.9338952 -0.61839 0.25320905 -0.725269 0.53166175 -3.876345 -1.7739047 -1.2141361 1.9325093 -0.09146682 -1.0997162 1.2688866 -1.0760449 -1.1551402 -0.424237 -0.5588634 -0.6648092 -1.2062443 -3.4507508 -0.36812815 -0.032457225 2.9532924 -2.4596004 1.3450606 1.0990759 1.6684774 0.059529524
up 1.5693964 0.91579676 0.40708977 4.1081 -0.62401056 -3.0669975 1.8795893 2.643488 1.3178241 1.3357258 1.9741082 4.7783375 0.1756719 -1.4730875 -4.72462 -3.0941133 -2.2118192 1.4176875 0.5753812 -3.8804772 5.6379795 0.36587417 -0.06988902 0.569733 -0.3322088 4.086229 -2.6220682 0.13171296 0.40227664 0.891401 -1.0965494 -1.9113966 4.3665304 0.8243335 3.2310667 -4.338326 -0.8825779 -4.564389 1.7299845 -0.06791072 -2.6543913 -0.24087505 0.75193787 4.9139233 -2.2519655 1.0123547 1.0971731 1.2772413 -0.012361839 1.6143634 1.6338239 -0.04899965 -0.8561259 0.70030296 1.5497876 3.4900596 -0.57793367 0.18179464 4.6356287 1.8239485 -2.3237693 1.3303311 -1.427418 0.92296016 -1.1962138 1.1429051 -2.5649252 1.8606956 0.58270895 -0.7535967 1.7948182 -5.0819087 -1.4340854 -1.4719927 1.2999873 -0.9753572 -0.87016875 1.594281 -2.9338017 0.043391276 -1.493796 1.5916014 -0.36246732 2.7359173 -1.5134939 2.083934 1.2795391 0.9736089 -1.256687 -2.187442 3.4311428 -0.25808105 -1.5409777 -0.2882568 1.234345 -0.33951858 -3.5864255 0.18726245 2.6999247 -1.3254343
she 3.7785547 -1.4160239 -2.739755 1.7379886 0.57846695 0.7707733 4.0152283 4.5281925 -1.2341089 -1.4083459 1.6954027 1.5542966 0.55365545 0.17324625 -1.2882309 1.991636 -1.8437637 0.821308 0.31841895 0.57732534 3.9993513 -5.1518903 0.5501537 -2.5526056 -3.131686 -0.80506885 -0.7863858 2.3903635 -1.3224039 2.3870945 -0.30887294 -0.677427 3.5721366 -2.9752586 1.2679859 -0.15527956 -0.124384545 -1.4907095 -0.9202252 0.9289307 0.80996525 0.22525184 2.0617895 0.21487057 2.659483 -0.5033257 3.6384902 -1.134742 3.030651 5.427882 -2.4380846 3.9106371 -3.7364533 -3.6698515 1.5521662 -1.6443765 0.7350565 1.6205944 0.9287097 -3.3222005 -1.8119792 -0.2506361 1.555874 -3.8182952 0.57933295 -1.4738615 0.016457511 0.7493185 1.3284116 -3.0669677 1.90128 -4.155356 -0.45727128 0.5128417 -2.4461462 2.3122783 -2.9316125 -0.07736004 1.8727074 -1.5072526 -1.7287469 -3.4963627 1.6361978 -1.8446326 -3.0396378 -1.8381757 -2.0983677 5.816289 -2.8474329 -4.637794 -3.5432825 -4.6528654 -2.1410325 5.596238 0.97206557 0.8015192 -1.679636 2.4730709 -2.6229649 0.35558292
make -2.4381616 1.5045197 0.6999013 3.0962372 1.3126496 -2.381848 -1.6349638 -0.78421557 0.34910095 -2.7666194 1.1035292 -0.14835273 -1.3099455 -0.41596505 -2.1895525 1.6410255 0.9647017 0.33433604 -0.06392147 -1.8625085 -2.405365 0.6322908 0.9119607 -1.6084342 -1.9796407 -0.16653575 -0.7313684 0.91461176 -1.4517514 -0.6407791 0.44733694 -1.6691948 -1.4612801 4.2679834 -1.9583833 2.675019 2.7712035 0.53676045 -1.1719145 0.03204974 1.4460695 1.9540901 0.8697873 -2.5070753 2.244004 0.49060157 -1.8551575 0.82868886 -0.065900214 1.3634051 1.5931599 4.0701113 2.1755009 -0.3068979 -3.2875614 1.7301302 1.8637667 -0.7336909 0.27238327 -0.12977804 -2.9460204 1.7584167 -2.9236608 3.2060494 -1.2679849 -1.0881376 0.8018988 0.17654969 -0.9982625 1.0707827 -0.5475345 -2.1587615 -1.8108804 1.5658236 -0.03202333 -2.269632 0.74549836 -3.3945115 1.899519 5.0780287 0.47423357 -0.4993762 2.5517104 -0.05278762 -1.8748232 -3.1786618 1.8979992 2.174175 -4.3400273 2.1954904 0.6178015 1.0431751 2.5661156 -1.9514055 -0.7558754 1.7613449 1.911726 1.7201031 -0.060821477 -2.904614
from 1.1353357 1.6557361 -1.3198056 1.747732 2.2329931 1.1081321 -1.2692039 -1.3438773 -4.8681035 1.3457321 3.2228048 0.23241557 -1.8019791 1.0859824 -1.1420733 -1.9797063 0.0530867 -0.8330947 0.7897805 -2.9225602 -1.9659613 -0.2058651 2.8965082 2.0244155 0.53474844 -1.6320747 -0.5817508 -0.9398963 0.63353145 1.9139774 1.9789402 2.0214386 2.9607904 -2.2874634 -0.5330723 2.173942 0.16226229 2.8729377 -2.6374326 -0.48245916 -1.0558037 -2.00165 -0.5344989 1.1206713 0.79857284 1.3251631 -2.3133307 -1.6219116 1.2607336 -1.2880743 3.7509906 0.8310398 0.27455547 -1.4991653 0.5147049 0.70602417 -2.3806686 2.35322 0.5223919 0.32487428 3.0054765 -0.65061826 2.927668 2.3679106 -0.015266163 -2.303968 -1.0509051 1.5778276 -0.20190176 -0.72065014 0.42933044 1.555578 -2.4026034 -1.2888927 2.397753 -1.684904 1.4957036 2.7076015 -0.21749924 -0.9603735 0.629602 0.8380357 0.13167737 -1.8743262 3.5237432 2.0033247 1.9467838 -4.8579774 -2.3937273 -2.7740214 3.106789 -1.764971 -1.6326586 -0.74341494 1.8719357 -1.7123816 -1.0925163 0.8338096 -2.6854618 0.16761479
will -3.7989917 0.90108967 -1.2402148 -1.6941149 4.3283515 -0.7199227 0.51246595 0.2264393 3.0405087 1.3442333 -1.0027599 5.0664167 -0.867183 0.196231 0.8239741 3.7403924 -1.1291558 -0.7051919 -3.0466735 -1.076719 2.6587029 0.3063816 -0.5363675 1.7194523 1.6899468 -1.2461218 0.9612877 0.5873757 0.19965747 -1.0962814 0.8665673 -4.8051133 -0.39753434 -0.31141904 -0.34064186 1.8381788 -3.3411026 2.6393406 -2.5048606 -0.8538098 -0.5772611 0.23977894 -0.72161984 -2.550193 1.2697972 -2.0370827 -0.5992049 1.0696763 -0.5493106 1.7565976 -1.4219972 3.9787657 1.7293868 -0.9889579 1.3836154 4.0506225 2.1960454 -1.0755478 1.6424023 0.14626068 -0.29721403 -0.2152947 -1.8208778 0.10561353 -1.7455494 2.3027382 4.100002 1.0225967 1.2753155 -1.2547492 1.3707247 -0.23113441 0.32284397 -0.7262189 1.7001423 -0.39974573 1.1415046 1.5516962 -1.3039677 0.4678748 -3.354382 1.2544142 -4.0186634 -0.32559472 3.6340756 0.24754249 -0.9169115 -0.46107545 1.4451276 -0.9126331 0.9993278 1.4891984 -1.2712842 1.2584224 0.5144649 1.4393296 0.720149 1.1309165 -0.9447562 -0.845088
me 3.8548062 2.741976 -1.6578958 -0.9124463 -0.48277467 -1.0071661 -0.5335021 -0.5102423 3.3179219 0.56844807 0.4660654 1.3335025 0.46980128 -3.2651658 0.62243307 -0.97916484 -3.3648396 1.0469912 -2.156871 4.555331 0.25328812 -1.4145834 -2.2462776 -1.1264006 1.4645505 0.46789265 1.7441206 -0.48389885 0.10632055 -0.22642554 -0.8922014 -1.0876813 0.37305126 -1.1533492 1.3685794 -3.305174 -1.2127535 0.23522225 3.2059846 -2.479733 1.0600991 3.1564314 1.3096611 -0.16375168 1.5059277 0.45822987 2.8722613 2.7883563 3.1401868 3.4261005 -2.2589881 0.31909943 -1.0850532 -1.6859165 -2.4884613 -3.6887004 -2.3235388 -0.720741 -1.7726326 -0.4299889 -0.84350616 1.4415635 0.35287306 0.5277791 1.1778164 1.4967147 0.046561707 3.9009533 3.2895546 -1.5085521 0.025102703 -2.0122674 0.05408088 0.9165812 -2.246072 -1.6811684 -1.1763078 1.0895742 -2.0228975 -0.7190348 -1.8712965 1.3807685 -3.1609616 0.3312145 0.9153187 -1.9054532 0.43026257 -0.4449033 3.1127193 -1.5732372 -0.69808483 2.3233252 0.44302005 -2.5904474 2.487222 -3.7337053 0.32890862 0.56470734 -4.52652 0.53647774
these 0.56067103 0.70428306 0.13329022 -1.9937431 -0.8208452 -2.181806 0.6508605 -1.3029923 -1.469857 1.7914585 -1.7746266 -3.179768 -2.0118363 -1.7794319 3.920201 -1.4052217 -2.801139 1.7636399 -5.840013 2.1524734 1.5046284 1.9997777 -1.5548291 3.3771987 -0.11873211 0.31808066 -0.91827023 3.7544198 2.6428814 -1.6106791 -2.0515406 0.29909113 0.7279566 1.9405931 2.4969301 2.408346 4.7073193 -1.9343477 -0.77181864 5.3761144 4.153605 0.10273741 2.2592502 1.4468681 -0.4757021 -0.20902756 -2.1747215 1.0486758 0.94389176 1.4847691 -1.6468086 2.1222196 0.3354246 -1.5558445 0.9741323 -1.1924379 1.9820172 -1.590262 -0.8218947 0.31836292 0.41446152 1.7413975 -1.1384593 0.060154334 0.46521375 -1.8948429 -1.4969141 0.8567924 0.52537644 3.3278615 -1.5222117 -1.5638788 -0.34527433 -1.2482587 0.8182795 -0.97453135 -0.842398 1.4947914 -1.8370109 1.4248489 1.3216403 2.4290242 0.5463767 -1.5988123 2.8989196 -0.77716506 -1.7210667 -0.32592744 1.8105901 0.25128043 -0.6765117 -3.3620307 0.3322409 3.2313595 4.188598 -2.1248062 -0.06964246 2.6630514 2.993878 0.42746356
good -0.79049313 0.21621726 -3.0270753 -2.526535 -1.0945584 0.6105556 -0.16588578 -1.9630493 -0.06707759 0.91065884 -3.440544 -2.7286434 1.287008 -2.2501535 -0.9399392 -0.28899643 -0.7500442 -2.6509566 -0.77528435 0.58419466 0.20004967 0.8311404 0.050988827 1.7496444 -4.232721 1.0996035 1.723447 -4.3174906 1.7277218 1.9299376 3.445005 1.3080813 -0.49907857 1.137865 -1.0830165 1.1714909 1.8903929 -0.8168803 1.2513244 0.7187092 0.33534965 -0.037660066 -0.36382023 -0.25454158 2.2859447 0.52459943 -0.98372614 2.4804869 -1.3315878 -0.08463086 -2.6451309 3.311569 -0.32867375 -1.1803987 -2.510711 2.7588441 0.5938963 -3.1606214 1.3268715 1.6064378 2.3687034 0.3284126 -0.50670666 -2.832425 0.3433484 -0.83186126 -3.2320354 0.106418334 0.8242317 -1.243041 1.3483787 -0.9892972 3.8275928 0.6980639 -1.2932316 2.5631762 -0.47166893 0.0816604 2.406536 2.936666 -1.8474778 0.45047513 -3.9129183 0.2878776 -2.1893313 0.49216795 0.7838039 -0.88375396 1.075576 0.17880844 1.8164719 6.062616 -1.2680596 0.8177377 1.610785 -0.7428068 -0.69726765 0.57973295 1.7721797 0.017458929
more -1.9254974 3.0306437 -0.23130693 -1.0956535 0.93571234 -2.9258463 2.6913748 -2.8936236 1.5774856 -1.1957892 0.8202339 2.6144109 -0.8249981 1.6297868 4.287765 -3.0734198 1.2374144 2.4048245 -1.9268358 -2.1383734 3.8474925 -4.0409207 1.3298146 -0.5644972 -0.40660188 -0.9037927 -2.3019652 0.75744486 1.3176008 -1.1460848 -0.38471767 -0.44164464 -0.7194351 5.1141615 -0.5298914 -0.37905654 1.3312181 0.30256242 1.2182387 -0.5283438 1.2647656 -0.790009 -0.026918093 0.64258885 2.5121233 -0.458415 2.500128 -0.6858401 3.0527816 -1.4335444 0.60556394 -1.3495469 -1.2514015 -1.8167177 1.4306108 -3.1125474 -1.0089055 -3.794665 4.623846 -2.0408797 0.40955758 -1.6167481 2.1822426 -4.0630302 -0.8276363 -0.94100815 -2.043874 -4.786901 -1.3483133 -1.0035298 0.20500225 -1.5039365 -1.0768635 0.44865352 -3.771046 1.2362039 2.2232163 2.6300018 -0.33818692 2.1131732 -1.4799398 1.2339963 0.60925084 1.2350107 3.3875427 -0.29882157 -2.1396463 3.1657093 5.8199463 1.3599166 1.1449193 -0.6676025 -0.24066521 -2.756264 1.6871575 0.10944556 1.0645247 1.1738769 -1.563538 -0.042850975
about -1.0759971 0.60026497 -5.0157223 -0.19505645 2.7892427 -1.2519388 -0.6929972 1.9675597 -1.6460959 -1.8888816 -3.5879667 1.7665043 -1.3549856 0.63471377 -2.4807224 2.0742102 -1.6732191 3.4385068 1.7887263 -4.902238 -1.0814885 -2.5068953 -1.0802097 -1.1766074 0.41175792 1.509153 0.36739787 1.8195859 2.5723336 -1.1315417 -0.4541086 3.5165644 -0.21660805 -1.636266 1.0970752 -1.5445411 -1.0718348 -0.71224725 1.2942083 1.1131063 0.78340137 2.9328885 -0.57537055 0.62652194 -0.7056217 0.5965169 -1.8743633 -0.64202833 2.4539008 4.3303394 1.4476542 3.0432253 -1.2208518 -2.5467777 -0.47663385 1.1524283 0.41099098 -1.2809467 -2.2180305 -1.850914 -1.3459787 0.36181304 -1.3847657 -0.69282347 1.1666657 0.72480273 3.7128751 -0.85164154 -3.434696 -2.167639 -3.0147471 2.8998318 2.1481824 1.7881262 -0.015657317 6.024133 -0.83776116 -0.30376238 -2.1279993 -0.36638168 3.3137867 0.84529227 -1.0546653 3.2038968 0.2065888 -0.6975574 -0.80540437 -0.93692166 0.007940347 -0.8157834 0.6384045 0.6989536 2.2058272 2.2970757 3.5214312 -4.2612643 2.1475868 -2.465805 -2.0531836 0.8455448
only -0.8744597 3.50001 -2.1830516 0.7270221 -4.060152 0.8470706 -0.512224 3.8733463 1.0208476 0.8239514 -0.95523095 -0.2858696 0.16406448 -1.7983254 0.7130682 0.47256917 2.0623167 -0.596707 -1.1410135 -2.302641 1.2475387 0.33182016 0.9940288 -0.2517196 -0.22910877 0.6742755 -2.2374246 2.099592 3.4289184 -0.18231751 1.5138841 1.1962013 -4.251929 0.23333913 4.0386043 0.17908208 2.5141559 -0.32723486 -1.0786117 -1.3698347 0.86452 1.8922453 0.065285526 2.0643933 2.4704728 -0.69125336 -0.19983655 -2.2132297 0.80195737 0.77771324 1.4214119 1.3919134 -2.4009695 0.5290541 -2.301848 -1.8798165 0.82351446 2.3407316 1.0487672 -1.388334 0.7687244 -2.1499493 0.2602058 -3.3635373 1.9914826 2.1285148 0.6296411 0.5578954 -1.738878 1.1023002 -2.3099806 -1.5844868 0.8287402 1.8392572 0.06406335 0.64522594 -2.5597665 -0.32458067 -1.2808955 0.48949385 -1.1200565 -1.2254544 -3.2787693 3.5645223 1.8536415 1.6468636 -0.17945398 -2.003744 1.2402377 -1.141533 1.1539513 0.20704071 -0.92323124 1.7662433 -1.8835868 -2.102382 2.17476 5.198955 -0.49213845 2.749452
doe 0.04228101 1.4115928 -0.11058113 1.8985538 -0.9994637 -0.99461067 -0.22197856 -0.66784894 1.2938304 1.0694057 2.2589145 1.031995 1.3338859 -1.5163507 -2.2123752 5.1620984 1.0212814 -3.7180061 -0.4138598 -0.8274611 0.8183986 -0.3168333 -1.1858218 -2.6881478 -1.4480602 -1.9238958 0.3660839 -0.95684487 1.7982514 -3.14619 1.1592536 -1.882034 -2.0311213 -0.3163782 -0.238069 2.2836764 0.13564001 -1.4011701 -0.52739936 -1.2058523 -0.6416151 0.09085821 1.8871893 2.187392 0.6574945 -5.5866265 1.5625588 5.822314 1.260395 0.917403 -0.18126848 -0.18686476 -1.6422892 -1.3381354 0.46976086 3.5629947 1.2886436 1.3675514 3.3591273 -1.5368545 -0.1297288 -3.1970758 -0.51871645 -0.8046245 0.022026861 -0.76487136 2.4379337 5.4473457 -0.912971 -1.8577695 -0.5283038 0.55809337 -4.602061 -0.428536 0.15508191 1.3406854 -1.5447401 1.8205391 -2.2501898 3.1824036 1.3963671 -3.102674 -7.0434375 -2.024131 1.3135742 0.14698526 0.20571353 0.42780274 2.24781 -0.45673168 1.6644131 4.812328 -2.0340867 0.6487646 -0.53697586 3.1420763 1.5764464 -2.3121605 -2.5488284 -1.0435066
time 0.5579818 -2.2095537 -3.0673044 -3.225466 -0.5852411 -0.679198 -1.3101107 -0.64879346 3.9626164 2.2398386 4.008084 1.8609948 0.017592063 -3.8047636 -0.07886244 2.0020285 -2.9363832 3.5982807 -0.8517838 0.66132367 -1.4191142 0.20284098 -2.0177202 -0.5061838 -3.8043685 0.6320046 0.54543066 1.4145343 -2.8149462 0.97252685 -2.8431878 -0.8824841 0.685374 -0.93031776 2.4172218 -1.7310967 -2.6106129 -2.027931 -1.0857347 0.8469703 0.85743713 1.7301314 5.7045784 -1.633146 -0.81006366 -2.1588764 -0.8391589 -0.9241991 -1.6672841 2.5790496 0.81175876 -0.9669929 1.8294947 0.92745364 -0.655031 -1.069165 5.457221 0.38982296 1.7547454 -1.6744058 -0.88867974 -0.6373949 1.2639098 1.4365242 -1.246796 2.0342174 3.7146204 -2.3064272 2.4822223 -4.8062334 3.709618 0.8661305 1.2595469 0.10069187 -1.1464026 2.548464 2.2040029 -1.1799101 0.26710555 -0.36682832 -1.7575417 -3.747958 -1.8572272 0.4213687 0.55037284 -0.10222525 0.38106877 0.87031853 0.86029583 2.1609278 0.54403216 -3.4844556 0.6374138 -0.82131404 1.7080319 -2.7700384 -0.79486215 -2.2783618 -0.58703405 3.764759
try 1.8658205 -3.290948 -0.76037854 -0.23093602 -1.9473788 -1.9933525 -1.1081148 2.9414308 -1.7698516 -0.32148814 -0.31887785 2.0681977 -0.81121665 1.4451147 1.5083766 0.80433536 -2.8158908 0.21901785 0.96508574 2.204624 -0.16474107 0.013297028 1.3839618 2.422442 0.6907866 -1.2118104 -1.4873701 -0.9012324 2.1452575 0.040174257 -3.017253 -1.4652913 2.6112435 0.6396148 -0.8731526 1.9881897 -1.5668582 0.08952938 3.6793602 -1.148874 0.29769614 -0.75724655 -0.06427255 2.5881326 -3.1317797 0.7685768 -1.0454319 -1.1246507 1.607639 -1.2437464 -0.43959203 -3.1433933 4.0845485 -0.016489523 -1.7455257 -0.107194655 -0.2961728 2.8230102 -0.54571754 -0.7345664 -2.484979 3.4469101 0.13010493 1.4684635 0.5660003 2.592746 -0.9492708 0.58214575 0.41538084 -1.7844449 0.531766 1.4081408 2.4619672 -1.4133893 -3.1679635 1.8322754 0.7566585 2.4407485 -0.59866315 2.7834947 -3.5392048 0.22303599 -0.29646146 -1.3907812 1.3428931 -1.3186172 -0.010727215 -2.4546006 0.61614716 0.47247234 -1.7340703 1.5574727 -0.4787317 -1.433941 -0.31801507 -1.4203491 1.0621572 -1.0839498 -0.03118908 0.0711733
your 3.8634472 0.6818813 0.5095042 1.0122436 1.6061658 -0.8535374 -0.12824315 -5.1090803 3.7100499 1.4708545 -1.382466 -1.6676958 -0.95705074 -0.3005588 1.5693952 0.46545562 -2.5915942 -4.5717344 -0.7803056 1.5157652 -0.11911169 2.5994627 -5.0003314 0.091235295 1.3350234 0.7654279 -1.7194197 -0.3206093 3.4788225 1.326431 0.5468107 0.92939955 -1.9202476 1.154235 -3.1218202 -0.11515301 4.282188 3.402745 -1.655264 -1.7437814 0.2963467 2.5102503 -4.0733485 -5.009784 -1.7130694 1.4165419 6.7021914 -0.7394779 3.2738495 -2.7898817 2.7951744 -1.1412244 -1.4628489 -2.8482158 4.5763416 6.257084 -0.3801753 -2.3395128 4.45009 1.487609 -0.5180149 3.088396 -2.6803608 -1.9884212 -0.39735782 3.9633522 2.7808065 -1.6240772 1.8214064 -0.4275329 4.3141427 -2.1898868 0.01617974 0.31151056 -3.0434859 -2.6013703 -2.302525 -1.8998554 -2.2749681 1.469297 -2.4835453 1.4188554 0.4385439 -1.1711953 1.1715469 1.1649656 1.891952 -1.7289563 0.26185572 -1.9168427 2.0470126 -4.2527256 -3.3684845 1.099777 -2.0170722 1.3483562 -3.6879334 0.43221068 0.3944923 -2.950545
her 2.5607517 -2.004009 -1.3531432 -0.42168826 -3.27812 1.3178663 3.9889936 2.9674735 1.025847 -0.4941371 0.46624434 0.18563536 0.30400717 -0.7537384 -1.2317663 3.143227 -5.6951604 -0.4208115 -1.9815094 -0.18391782 0.67252654 -2.9761848 -1.0473771 -5.1327376 -2.413959 -1.8055385 -2.5925121 1.7650472 0.8917888 -0.22169724 -2.1984448 -1.564009 1.1006451 -1.991601 2.143023 -1.425775 -0.6843384 -2.5661619 -0.4691618 -0.64161104 1.0549858 0.31407514 0.9946345 -3.2228525 -0.49498275 1.0259831 5.375194 0.12150675 5.423774 1.5873177 -2.1737418 0.1682389 -3.1924345 -2.727349 2.818285 -0.79673856 -1.5375355 0.561675 -0.14448676 -1.4094152 -1.0522201 -0.39717677 2.1823976 0.035681754 -1.5790088 -0.036781628 0.91148376 2.182035 2.6781602 0.32721055 3.9995034 -3.6028423 -1.9999384 -0.52202976 -2.7579284 -0.8892219 -1.1666642 0.59549856 0.05109319 -0.90692097 -2.9398923 0.35296488 1.5482835 -2.3990088 -3.9206378 -1.868796 1.3152046 1.4056852 -2.3482873 -6.4390497 -0.77433836 -2.9912307 -2.3873541 2.179873 1.0154992 -1.7961025 -1.4142636 1.8070228 -1.9150735 -0.8867513
really -1.2471147 -0.19884351 -0.85552895 -0.15754268 -0.9613796 0.6641216 0.8287356 0.53846663 0.36273038 0.6523069 -1.8761758 -0.50599766 -0.392583 -0.40132084 0.9708617 1.414593 -0.61464834 -1.3919275 0.6425355 2.0432148 1.0469607 -1.7725506 -0.1570048 -1.634122 -0.7764736 3.5445814 -0.6409696 0.15555522 -1.4232731 -1.3984419 0.29611775 0.2119779 -0.9857349 -0.39046007 0.11553308 1.0085564 1.0024691 0.58737385 -0.96487755 -1.1252193 0.2740365 1.5504862 2.0728858 1.1348678 1.4895855 -1.9339219 -0.05450764 -0.18895757 -0.07230568 1.4639916 0.7285591 0.931764 -0.022280589 -4.104477 -0.64302737 -0.46916774 -2.3454394 -2.1349435 2.0096366 -1.157598 -1.3572308 -1.489432 -0.9236153 0.62592006 2.6748176 0.8873228 0.35103056 -0.57762706 0.19229399 0.23860377 -2.4593604 -1.6898162 -2.9312634 -0.13045934 -2.7568653 -2.242795 0.13270937 -0.21892469 -2.5631032 0.86921525 -0.4990595 -1.4223075 -1.6029569 1.7092446 -0.7445168 -0.4534868 -0.89628565 2.072006 2.0635502 1.4514086 -1.6683059 2.189109 0.24493438 0.026494004 -0.37397933 0.7198758 -1.0602272 0.9149261 -1.9736053 -0.10674839
toy -0.23543663 -0.98507947 -0.008904984 -0.6860765 0.4422348 1.8814546 -1.7511806 0.59796107 0.11722119 0.7658628 -0.043570776 0.57455957 0.07137842 -2.347366 -0.33389217 1.4617797 1.2498115 0.75394195 -3.8200824 -0.21503963 2.5245602 -3.644498 3.9978676 0.7221829 2.533107 4.089025 2.310734 2.2697794 -2.7594974 0.8936506 -3.258988 -3.7466273 1.3353243 -0.12796532 -4.8269196 3.1446905 -1.281426 -3.8684385 -2.6404018 1.1534147 -1.5399026 -1.4044085 4.3650513 -0.32706806 1.4460996 0.7522253 2.369008 -1.6027179 0.19614413 -0.49108714 -2.6141849 0.5565818 -1.7841005 -2.954942 0.29266962 -5.3705044 3.3179765 -1.7626823 2.5491343 1.3200116 -0.07612698 -0.83618224 0.5218695 -3.5751295 -3.808094 -0.22888808 4.376696 0.66113675 -0.9995963 -1.0429366 0.23461358 -0.71166986 -1.816532 -1.4403327 -1.4992665 1.1281776 1.3833205 -3.3550668 -1.7616333 -2.392794 0.5815086 -3.4415505 -2.9513876 -1.9432175 -3.2425115 0.81228656 -0.8097445 0.97553366 -1.4345809 -1.7177175 -4.622515 -2.3156013 1.1860427 2.317513 0.93618876 -1.3604885 0.107988104 1.1002383 -0.20538805 -2.0834641
well -1.6478755 -1.9401048 -1.3847889 -0.8578239 -1.6644661 5.1673956 0.6865683 -2.5063748 0.5762708 3.3128054 -3.095055 -1.6809204 1.7722111 -1.3894315 0.809489 2.8049924 -1.881102 3.5737774 -0.15392983 3.0163064 1.1804934 0.043229286 -0.91873884 1.7360485 1.4849862 0.104237184 -4.005281 -3.0372205 -2.5773373 1.708717 2.0876782 -2.651801 0.25318474 -0.34506932 0.7302532 1.3232924 0.31628916 -2.2216864 -0.3192441 1.1653256 0.6532802 -2.268803 0.23119925 1.5363624 1.6032102 -1.6277199 0.85603493 4.617736 0.09570283 -2.3396385 -0.47990355 2.0199013 -1.819235 -3.9597979 -2.8133922 -0.9848169 0.13833144 -1.0555904 1.4904959 1.2497115 -1.551092 2.2613208 -0.801183 -2.6619527 1.1119318 -1.0423237 -2.6157038 1.5847486 0.24541903 -1.9548794 2.5719583 0.35006002 1.938978 1.415797 1.0608902 3.1360745 -2.6454654 2.4347157 -0.26767114 2.6785102 0.8921153 -2.385009 -2.2394993 -0.80581355 -2.3220742 1.6157036 -2.2612126 0.119794905 0.23603526 -0.4083416 3.3155413 4.6310577 -5.2996497 0.011522933 -0.6833235 -0.8583721 -2.3663042 2.2986891 2.5955064 0.49502507
other -1.0490085 2.026284 0.1637843 -1.8966691 -1.6164106 -2.6722193 1.0368606 -2.3178089 2.2216675 -4.2368803 -0.34729812 -2.334216 -0.9571478 3.154164 2.0985527 1.455556 0.6320692 2.2265673 -1.9744226 -2.68117 1.461652 2.1180747 1.7638133 -0.13413675 -1.1937644 -2.0272593 -0.81254065 0.09011012 -0.04436128 -2.6581562 3.0315 0.47289616 1.1751825 -1.5003903 1.8584011 1.8418427 2.7366319 -1.6941309 -2.5355933 -1.4740196 2.3180966 -1.5727835 0.82225186 1.2944931 -2.6051047 -3.3662 3.5910544 -0.29596394 0.18981202 -2.4852264 0.47982553 -3.226705 -2.2913136 -1.144364 -1.5463783 1.1130166 3.0155387 -1.1969148 1.9842299 0.35520005 3.3063905 3.5829346 -1.1622959 0.900817 0.068453334 -4.670033 -0.18198761 -1.0054002 -1.9384906 0.7604605 -3.8642342 -1.575848 0.84884083 -2.0412755 -2.511028 1.1729919 0.45566753 3.5750835 0.21540177 2.2893422 -1.934233 -0.08615993 1.4107438 3.4042764 2.11011 0.2137518 1.2218833 4.6602955 2.9843154 1.666489 0.43821272 -0.25921223 0.9988273 0.8405996 0.9971888 -1.5605308 -0.45115784 0.6155156 -1.3248572 1.5768992
no 0.8375326 -1.7535388 4.535036 2.1981866 -4.851101 -1.7376549 -1.9338012 -4.28619 1.7193482 -0.16494736 -0.2505696 1.2305123 0.3625348 0.13843708 -0.59486544 2.0679438 0.008429749 -1.5245011 1.4642934 -2.3427489 0.32664382 -2.4815319 -1.0663507 -2.1345234 0.46151748 1.4779445 -1.1731931 -0.0029088643 1.9852068 -2.8945007 5.6033998 1.7402918 -3.417994 -1.3450171 4.3152614 0.5372974 0.5492458 -1.1933557 -0.59132904 1.8001792 -3.6000328 3.4912114 -4.850779 1.7014141 2.6580358 -2.0077574 0.40235516 1.6207834 0.025776396 2.3385587 0.81181985 1.8612169 0.5311213 1.2237805 -0.40652004 -1.9537287 -0.35948938 4.384488 0.50032294 -3.1464293 1.0986458 -2.6044824 -2.382588 -3.9215837 -1.4264632 -2.962568 0.92958146 3.4248068 1.8808953 1.907118 -0.11688023 -1.1645075 3.2043924 -0.15113924 1.9763327 0.011902304 0.6376784 -0.5817101 0.67173165 -0.19155091 -0.07387533 0.24316116 -0.81904644 4.393865 3.3523092 -3.005708 0.38800952 -1.6590205 -0.36816186 -0.083403595 -2.1296892 -1.3680234 1.4785577 0.21316968 -2.9429855 -4.78549 -3.7267377 2.4140668 0.68830717 0.858178
than 3.2902708 -1.9551126 -0.7901357 0.91652405 3.1580322 -1.0270218 -2.9739842 -0.3865299 -0.20960896 -0.08571147 -1.7656969 8.824016 -3.4325864 -3.3394184 -3.1961546 -1.668595 -1.1029737 -0.2807438 -1.3772509 -0.65276647 -5.3119884 -2.2594695 3.0863855 2.8473244 -2.434758 -1.9135901 0.45598078 2.6267796 -1.1258135 -5.093934 1.0472443 -0.54094136 -3.3931777 5.4042864 0.8891851 -2.6320198 -0.62284833 0.17429875 0.96764416 -2.2563663 -0.9124288 -0.91783935 -2.7529395 2.7582555 0.7095052 2.060524 -4.4815946 -2.706702 1.6361464 4.744413 1.2624803 4.5959334 4.1619954 0.2571259 -0.47646856 -0.20111835 1.2769364 1.3954958 -0.83129543 -1.3516749 -0.9652308 -1.004378 1.8534238 -1.7896609 -3.1136777 2.0999064 -1.4694624 1.4020175 0.20869832 -0.10554126 -1.432319 4.3069887 -0.50584084 -0.45086923 1.1962153 -3.5680642 0.8869981 -2.2169383 -1.0902154 5.336866 5.9338546 -3.962618 -1.6230909 -0.38038117 -1.6749867 -0.080972716 -3.7349856 -4.8046546 -1.2618299 -0.78744936 -0.8320691 -0.36700118 -2.7762258 3.0036867 -5.4373913 2.099208 -0.47450796 5.5233283 -0.67555416 1.1628046
little -0.6259631 -0.009661154 1.4295757 -0.09920828 0.38387135 0.47344145 -0.11047427 1.2139462 2.7323806 0.951943 0.85461575 0.7404119 1.9525077 -4.7903466 3.2010293 -0.5776242 0.7587988 -0.83518213 -1.5541725 -0.47334418 0.7296593 -3.0670674 -1.0380342 -1.7025803 -2.9554026 1.2211297 -0.84917045 0.93842417 -2.5543716 -1.296979 0.14970031 1.2036862 1.1897471 3.8434021 -3.5367758 -1.1447952 1.3367376 -1.0170041 1.962164 2.516284 -0.6845978 -2.0137832 -0.024378434 -0.29120955 -1.0613835 -1.9718022 -1.2960758 -0.52402836 -2.8180487 1.7372543 0.2269835 0.28627798 0.2707604 -2.4034355 1.8872532 -1.6686869 -0.092994675 -1.6963787 2.0245159 -2.386663 -1.1718593 -2.1920996 -2.1252148 -0.70034724 -2.177142 0.85923207 -0.1566093 2.2845187 1.6965417 1.624575 1.3579743 -2.497592 -2.3450367 1.3848755 0.3061235 -0.7152883 -0.7483574 -1.3325078 1.307997 2.2038846 -0.24554925 -2.399488 0.89939785 2.265081 -0.49982986 0.7169465 -0.105574384 1.6074773 0.5522238 1.0426444 -2.2463112 1.0773633 -1.9451945 1.4063458 -1.0544322 -4.1491013 0.015842333 -1.5881062 -2.4323921 2.0195
because 0.24983065 1.0330431 1.244441 0.8795343 -1.3485372 0.3732677 0.360632 1.5206817 -1.8128512 2.145471 -2.506252 -0.15127231 -2.538122 -1.2359611 0.104433544 -0.7720684 -0.70488816 0.34706455 -0.80173177 0.1369761 2.2078743 -2.5173848 1.0996622 -1.7431324 -1.1863422 0.40766907 0.10692976 -0.4031731 -0.1959194 -2.517867 -1.2788917 -1.2166181 0.7784635 -0.05427264 0.47146407 -0.5325744 -0.49363583 1.2150195 -1.1826621 -1.2482005 0.21479787 0.3532426 0.77456737 0.054630015 2.4857197 -0.35861826 -1.9052587 -0.7313618 -0.2503557 0.5167321 -0.08687922 2.4813216 -1.3321428 -3.485134 -0.124418624 0.1670616 -0.43250772 -2.6920516 1.5165113 0.7431936 -0.34279 2.621162 1.9872577 3.72497 -0.5738978 -0.1309522 1.125147 -0.44758096 0.16623048 -0.58323056 -0.73377085 -1.1181126 0.27611375 -1.0616795 1.2226963 -0.069907606 1.0161214 0.2178634 -2.330138 0.42965576 1.2259482 -0.6643836 -1.3054619 -0.9564192 -0.048243396 0.38263333 0.6456895 0.6437751 -0.36707425 2.7107687 -0.92440444 -0.8641679 1.7250607 -0.7025474 0.8124082 -2.984384 0.28142384 1.6651266 -1.4815391 2.329041
after 0.27877545 -1.9089463 -0.7321595 -0.3619933 -1.128966 -1.1003281 -1.3133374 0.25758037 -0.7404967 -0.6328621 0.48622262 4.1454115 -1.8066161 -1.2120945 -2.065759 -3.12377 -4.829597 0.23109215 3.9780152 -0.78276575 -4.5481696 1.4598553 -1.2549279 0.10057423 -2.1930604 -2.430943 3.0493214 0.21789779 3.7993505 1.7012341 -1.7290672 -2.7428725 2.5182018 0.20973624 3.1094801 -0.48410586 -5.3232203 0.34128997 -6.4084134 1.9881887 3.009518 0.61755323 0.9491419 1.5656949 2.7001135 0.1756848 -2.330398 0.72343606 -0.031227194 2.6813097 2.5556457 1.0768694 -3.6305296 0.16974805 2.3762298 -3.1218047 2.9072466 0.074815296 2.037785 0.48378164 -1.2935091 -0.81426066 1.9036545 2.0031462 -1.5496726 -0.5968819 0.45857885 -1.7101263 -1.6425097 0.114468016 1.6437246 0.7711228 1.5379559 -3.5772974 1.3589754 0.50336194 -1.7963915 0.08467483 1.0762715 -1.2970048 -0.4058846 1.7207057 2.2832906 3.6035082 2.3632445 2.135909 0.7895936 -0.6165473 3.404445 0.28462228 0.40777656 0.07405985 2.6735883 2.7206492 -0.57193696 0.36349916 3.290957 -2.0365815 -5.2987165 1.6010518
old 1.3549352 -1.4151678 -2.5051432 0.16458088 -2.88259 4.6711035 2.4049835 2.0376296 3.571832 -6.9653616 -5.9313445 -0.21921758 2.0395274 0.4282505 -0.38852867 -1.7611713 0.49651462 0.30590546 1.3123429 -3.283674 2.3924549 -1.734087 1.4412355 2.8748713 -1.7587649 -1.0544493 -0.81475204 4.2559237 -0.60351753 1.3915678 -4.551562 -3.6835415 1.2342029 -0.3270445 3.3042126 -0.74918014 -3.3481793 1.3625072 -1.1880964 4.832238 1.4780294 -1.214043 1.226003 3.7210252 4.7074175 1.4970006 -1.3395085 -0.52458763 -2.091286 4.014777 1.2143501 1.7796897 -2.9632087 -5.7289715 3.5320287 -4.465896 3.3235908 -1.2843024 -2.5240138 1.560873 -2.9828205 -2.8488965 -0.5982663 -2.821209 2.8464243 -3.0978317 0.023613356 3.1301646 -2.8760324 2.2018883 -2.2011683 2.4998555 0.48228046 -2.5123 0.15943678 0.76722276 -0.08486046 -0.19136873 1.0874989 -3.9147387 4.535666 1.2629415 -0.28859904 1.0463667 -2.1511884 2.9458916 0.7659206 3.2870388 0.40853986 -3.8119733 -4.829656 2.3437362 -2.2397075 -1.3845875 2.2151825 -3.1399863 0.02312725 -3.5036297 -4.012013 -3.031682
also -0.30516663 -0.025952118 -0.4539672 -1.03839 -2.1600387 0.18769926 -0.022770867 -0.5185236 -0.08667019 1.4376824 -0.16347048 -0.030752072 -0.48991656 -0.43905258 0.3856914 0.26965797 -1.3766514 -0.54525745 -0.59275526 -0.44977382 0.59032357 -1.1272495 0.028062807 -1.8945549 0.46363923 0.71384853 -1.6585948 0.24634765 -1.4256961 -0.4466618 0.721179 -0.99001455 -0.9095053 0.9266833 1.01603 -0.49196008 0.082466416 0.6632726 -1.5573422 -1.291996 -0.38822287 -0.12111153 -0.97601587 -0.22625002 0.3763654 -1.1526017 0.14779523 -0.078419864 0.11064042 1.8855363 1.0912902 0.06695599 -1.9478176 -1.8369902 -0.835575 -1.6165563 0.19529702 -1.3092967 2.23406 0.50497556 -0.724569 0.12650603 -0.22817709 1.3587865 0.943416 0.21339698 -0.10690699 0.9908743 -0.82743776 1.0155702 -0.61724365 -2.0646212 -1.9887362 -0.44225332 -0.8062587 -1.1523706 0.9130083 -0.22060883 -1.3684754 1.4621764 2.104516 -1.1440465 -1.3092142 -0.29590145 0.54078233 0.7606527 0.32294595 -0.007288879 -0.5047041 0.65107495 0.6725708 0.0607596 -1.8015368 1.0957993 0.2937274 -1.793651 -1.1605102 1.5239128 0.10211089 1.3526735
an -3.6005943 1.3061193 3.2255275 -2.5263572 0.14323229 1.6105095 1.5102816 -0.18488322 1.4559945 3.539816 0.54180014 -1.7164648 -2.68379 1.3121963 1.2097049 -0.841566 0.91649026 1.4945742 3.058792 0.5039002 2.61103 -0.090084165 -1.7457387 -2.7654839 -0.8005043 -3.2497797 -0.6728448 -2.8204994 1.4495382 2.622575 3.2974427 2.5791118 -1.5538157 2.2827568 2.3565905 1.7746407 0.62858784 -0.47499862 1.5299177 -3.2047396 0.46597013 1.6388184 -4.3352323 0.86999416 -1.418165 3.7730482 2.937139 -0.17833331 3.9145417 -3.0771167 -4.8542604 -0.5516404 -0.9337516 2.6305869 4.187412 -1.7160766 -0.45364803 -0.43467715 5.823329 -0.41149554 3.595054 0.82997245 1.6632705 -1.7915463 3.9894085 -0.6974983 1.953569 2.88167 5.6639056 1.7446668 -1.3788655 1.2665359 4.573053 2.35439 1.4285035 -3.067081 0.10473682 1.9230282 0.7156103 2.6094563 2.8740294 -2.5231807 0.085735135 2.9469156 -1.5026207 -1.3965582 1.3850458 -0.40847754 -0.67680985 1.3241113 -0.13342448 -2.2244406 3.3514292 1.7760658 0.94148153 -0.21337985 -0.01487838 -1.7398591 0.20314845 -1.8633527
much -0.6251629 2.5701294 -2.0061638 -1.328404 -1.1944382 2.8477437 1.0194852 -3.0232196 1.6525263 -0.77928674 -2.870667 -1.2674649 0.19085032 -2.1085255 0.3283139 2.0024877 -1.2855804 2.3037362 1.5710361 0.53648126 3.1393242 -1.5934649 -1.833457 -0.1974728 -3.2066216 -2.6674774 -1.4690433 0.987696 -3.7902927 -2.4605074 4.5759144 -1.4317204 -0.686608 1.9197421 -2.8272617 -0.2075293 0.06534594 -2.5465014 0.08950215 -0.6484429 -2.7671328 -0.8215223 -3.5647418 3.0866866 -3.0826848 -0.14942606 -0.4671698 2.8972955 -0.47930634 1.2417058 -3.037181 5.913796 -0.67480266 -3.850938 -0.075359195 -1.9102814 -0.28700516 -0.6498174 -0.22419044 -0.36465153 1.2471675 0.8120839 -0.4574725 -2.0176675 -0.048618555 -0.6746264 -2.8697839 -1.1920584 -2.3769963 -2.6039143 0.87674683 -1.7338855 1.2068241 0.20319778 1.3927306 -2.4607425 -0.7769004 -3.4803684 -1.1629608 0.13555495 -2.9228642 -1.4104452 -2.0562153 -0.10795762 -2.4779108 -2.7258852 -1.4234629 2.47219 1.1819714 1.3089906 0.5017266 -0.82000494 -6.0347614 -2.52181 -2.7814288 -2.8724666 -0.021083754 2.3452554 1.2005813 2.5845752
go 0.93003196 -0.9245968 0.39824173 1.8404896 -1.2438098 0.26311776 0.44448736 -2.7491999 0.05959205 -1.6784061 -0.13745022 -2.213842 -2.075427 -0.009888201 0.33256757 3.340081 1.5244888 2.0831013 0.40670273 2.0020094 -3.0334656 0.9145863 0.35477743 -1.7349974 -0.94174945 1.8575618 -0.3658161 1.725236 2.89886 2.3083498 -0.9783586 -0.90016526 -2.15297 0.78224736 -0.072036125 -3.0860555 1.7584254 1.3892791 1.5330209 -1.6687185 -1.420099 -1.7413404 0.8429472 1.4941592 0.6669246 -0.43815374 0.29636762 -2.902533 0.52901816 3.646114 0.823469 -0.4847968 3.6627016 -0.45254636 -0.97325957 -0.1628942 4.208324 0.013032197 -1.7656083 -0.39362648 0.8201217 1.6047174 4.1952353 -1.0535685 0.32095408 1.5646323 -2.941037 0.98091197 2.102888 0.014306215 -0.5506528 -2.185174 1.9138196 -0.95358175 0.8834474 1.9701575 -0.4529683 2.3951178 -2.6883337 -1.6747105 -5.4501348 3.2168083 0.8113661 -0.70162964 1.3675714 -1.7847483 3.0299823 -0.87047917 -2.005191 -2.663123 -1.983435 -1.2252297 -0.2060835 -1.9904679 -0.68825305 0.79362357 1.1320373 -0.86735666 1.0852761 -1.5011954
take 2.8874605 -1.2496552 3.1817746 1.4263153 -0.9871444 2.7138512 -0.916797 -0.37872964 -4.108976 -3.9350321 0.51431304 -1.6052434 -1.9609683 -0.7536516 1.3874456 0.3748278 -0.44095713 -0.6207433 5.1447787 0.5910206 -2.0943475 1.0218797 -0.7270052 -1.2706039 0.8759981 -1.3441077 -2.2806013 -0.3399138 0.7242224 1.6645892 -2.2269282 -2.7852156 -2.3642612 0.43013355 0.30767772 -1.4854826 1.1434143 0.5883049 -2.842268 -0.34537935 -2.591102 -5.8184633 -1.0867586 1.498387 -1.5618637 -0.86152697 0.029188441 -1.9514452 -1.3806605 3.7961328 2.1467621 2.0435674 1.3383193 0.6420199 -4.1370764 0.76917785 4.176458 -1.0497034 0.4346297 -4.244501 -3.5320594 -1.8034257 3.1171684 -1.1017331 0.05561199 0.10096251 -0.64373845 -4.081378 2.0042145 1.0996547 1.5161804 1.9851927 1.0573027 -1.0740018 -0.34338892 3.172044 -4.4877224 0.24291822 -1.9090736 1.3947427 -3.2924938 2.522748 2.3043427 -0.20534042 0.5098004 -1.7059392 1.9438863 1.7897421 0.81697696 -0.12403903 -0.3844584 -0.9841571 2.391737 0.9307049 -0.7016708 1.131038 3.7373056 -1.3561709 -1.5082409 -3.8490088
too 0.5398284 2.2180846 0.581119 0.5106144 0.32400307 -1.8909655 3.7199578 0.27309605 -1.4170247 1.0449479 -1.2344035 0.26830658 -0.25109822 -2.1990561 2.0036912 0.42629945 5.288675 -2.1882102 -3.028056 2.9169505 0.79851264 -2.4641528 -1.1324036 -1.9315264 -2.5656126 2.2699113 0.4073636 1.5768563 2.3912795 -1.6515993 -1.2424387 -2.4228616 -4.588449 0.93255407 0.4044365 -2.076586 -2.7094762 -1.184666 0.14328107 -2.3343067 -0.2838394 0.11861136 5.50517 0.9468964 2.3956263 0.8247152 -2.622439 -1.3756855 -0.0068539237 3.3961952 2.5474744 -1.552968 -1.4084394 -3.1514504 1.3734578 1.176516 -1.9285012 -1.3715878 2.5744662 -2.5828054 -0.39684802 -1.6514847 1.0296223 0.38513026 -1.1414105 0.028058235 2.3630233 1.4918466 0.5360947 1.2216717 -0.69166285 -2.0655782 -2.1663406 -0.509063 -2.056273 -0.9283697 3.532911 0.50655156 -2.579604 4.8386283 1.2532142 -2.5081165 2.2194002 0.7164661 0.7244241 -0.73613685 -0.9942936 -0.0998658 0.49392185 0.38994724 -2.7754476 0.4645612 2.63162 0.40815824 -0.39656404 2.233216 -3.6051035 1.5716097 -0.7384648 0.04670101
now -0.587405 -2.397075 0.90738606 -0.8148486 -2.3050542 0.036945578 1.0900846 1.875143 1.7708931 -0.37262392 -2.0196955 2.2837439 -1.520007 -0.6004346 -0.09693157 -0.8237304 -1.85177 2.001456 0.009166842 -0.020132245 0.72123957 0.18091492 -0.6306402 0.5794612 -1.7082701 0.57733494 -0.6957982 2.3175519 1.2292293 0.8017702 0.81961894 -2.1829643 0.8172377 1.3386917 4.4273853 -0.05273155 -2.4416108 1.7559695 -1.4418848 1.0844804 1.4419229 0.5658171 0.4013422 2.6957264 1.0551821 -0.6421866 -0.21108492 0.86574256 0.61325264 2.1957037 -0.8910096 0.68177575 -0.6025932 -2.062168 1.5084313 -0.8861021 3.5293643 0.27625763 -2.8138025 1.1288109 -1.1692268 0.7781993 0.71909416 -1.4047227 -0.5576452 -0.08408283 0.6264808 -1.5065901 -0.8040784 -0.4728281 -0.47233084 -0.79288787 1.7416003 -0.074921 -1.143267 0.21974412 0.5389209 -1.6561224 0.7051814 -2.288258 0.7876878 1.3614876 0.5056141 -0.26918697 -1.9058324 -0.8478894 0.885881 -0.17936966 0.50530106 -1.9842498 -1.8483721 -0.8757903 -0.79348207 1.1480591 -0.2565665 -0.7968823 1.6388241 -0.73474646 -3.0389822 -0.18938252
there 3.4608757 0.4195032 0.271297 1.2319059 -0.19546938 -4.533235 0.74763924 2.6685438 -0.1809731 -1.6334876 -0.2785424 2.040075 2.0842848 -0.043406077 0.73633486 -0.83925873 -0.32667246 1.1635814 -0.36986834 2.1011045 -1.5849798 1.9552506 0.32016134 0.8339806 0.007627422 0.5595053 -0.44354764 1.0789802 2.3683686 -1.374085 1.9629853 -2.3117511 -2.3205695 5.3808274 0.7883963 2.282958 4.93207 -0.3417756 -0.5657972 2.1208003 -3.4217627 -1.53064 0.77016133 -2.1135511 -1.7981862 -1.0102155 -0.6178112 0.0953696 -0.3536378 -1.0738221 0.16133615 2.287567 -1.2476494 -1.2727661 0.04489504 2.4124348 2.618656 -0.9841937 1.051907 -2.6928933 1.22463 2.1439486 1.2647538 -2.4955897 -0.17238915 -2.566715 1.494396 -1.6587254 -0.5477534 -0.96667314 -2.557387 -0.9157633 -1.6187048 -1.9457034 -1.4366258 4.4808717 2.466497 -1.3883135 1.8839809 2.8995593 -0.038902827 0.14393976 1.2143221 0.7269536 0.33258188 -3.3988585 -1.0635891 -2.8851438 1.2810918 -1.210243 -3.3187947 3.72677 -0.49054262 3.273589 2.554728 0.05462599 -0.962109 3.7487555 -1.8838037 0.47378087
our 3.121451 -4.620562 1.6612296 -0.062427443 -4.394525 -0.81747013 1.3806573 1.1116612 1.4418166 -1.8398607 -1.9056109 -0.68395585 -1.4536053 -3.394602 -1.006492 2.6476564 0.8014014 0.85574067 -1.201701 1.1937082 -0.45127296 -2.0249774 -4.1603713 -0.84604603 1.2674676 -2.5793116 -2.6427305 1.0662818 0.96034545 0.45292646 1.1036136 0.90893084 0.07772263 -1.4789135 4.480675 0.3217783 1.8836079 -1.4383099 -0.73940665 0.31602287 1.4237655 -2.304649 0.9417752 0.40109953 -2.62124 3.371501 3.2151802 -0.71971613 5.2877703 -1.8721377 0.77444506 2.7100258 -1.5095047 -0.58845943 4.1476426 -1.4743212 -0.0446588 -3.0584345 1.1888022 3.3926983 0.98075247 -0.54083246 0.8121727 0.6322088 -2.9022343 -0.3077066 3.4345953 -0.7871878 0.527439 -1.2190042 1.6091436 -0.2734042 -0.15139085 2.7179317 -2.0430052 -1.1738808 -0.6277936 -2.707588 1.3775876 -1.4593602 0.13326253 0.7443977 1.4550261 -4.5557466 -0.17003842 4.9421597 0.22593457 -0.5393768 -1.5722781 -4.428453 -2.977577 -3.1638095 -1.6779107 1.1046165 1.6302105 -0.3075929 -1.1942452 0.37380466 0.10645129 -2.7744787
even 1.3649801 0.7726245 -0.45431203 0.4190231 -0.4029443 -0.44122404 0.088820025 0.7329466 0.7696109 -0.5257377 -1.3673413 1.0694649 -0.37441885 -0.9229186 1.218059 0.8843812 -1.3385489 0.25519103 -0.00816685 -0.29426426 2.1325986 0.2596744 -0.7818605 0.18837127 0.07869846 -0.39450684 -2.2843444 1.8953191 -1.1163267 -0.6648253 0.7334749 -1.1774756 -2.4822752 -1.6185054 0.2640883 -0.7259745 2.3575294 2.0947587 -0.061369326 -1.5679032 -0.72111577 -0.73449254 -1.8020284 1.9604177 0.5398912 -0.29121768 -1.2639418 -1.8119411 1.7197689 3.0304456 0.119562656 0.41707706 -0.9391107 -1.9919789 -1.6371906 1.1346734 1.4749775 -0.29499176 0.4286748 -3.1026857 0.2554874 0.6318091 -0.17639004 0.8237795 -1.4760804 0.4633025 -0.09896188 2.9915168 1.4113911 -2.1531196 1.7307085 -3.8898726 -0.026172157 -1.2916635 0.012090407 0.018829174 1.9541934 -1.6392444 -5.6986356 -0.5371145 1.7212808 -2.301621 1.8420296 0.7389894 -1.6407765 1.9169114 -0.00069552084 0.9466148 0.0056844093 0.7440765 1.3549625 -0.3048645 -0.39960626 3.063008 -1.38156 -0.7347712 -1.7297833 1.4406009 0.02761408 0.59032094
hair 2.1058927 0.07443555 -5.7411103 4.014908 3.5698504 2.3154185 4.027232 -2.6820822 3.2370195 3.0957208 5.739984 4.984369 4.6923847 -2.0083053 2.3822548 -2.2647505 1.9461598 -0.7661188 1.4419172 2.6264017 -1.5429897 -2.2354577 0.75965744 -3.4408484 2.4957223 1.5463217 0.8474197 0.45915952 0.4168467 -4.716581 -0.98435026 -6.94116 0.4977362 -4.808443 0.6878982 -1.7291057 0.005137884 1.3216293 -1.2783576 3.5125556 -3.20092 3.0298452 1.386282 3.8503246 2.8439753 -2.808494 -1.7483981 0.70116913 0.23051426 4.5113235 0.21803817 2.3373609 0.62334776 2.9181051 -0.117113814 -1.6371006 2.387345 -0.8954642 0.6275783 -5.061916 -3.9251013 4.075514 -1.6540504 3.6864426 3.374108 -0.7705835 -2.738479 -0.71622676 -0.80129075 -0.6899465 -0.091083996 -1.460318 4.487368 -1.5640694 -2.0317087 0.7655952 -3.999828 5.571062 -1.1638261 3.4474883 -3.2442129 -4.354643 -4.6424084 3.4321332 -5.8614426 2.093861 3.251982 -1.4161067 5.0412426 4.9807615 -0.6053174 -1.4397781 0.23235415 0.41102397 -1.443765 -0.80401504 1.2998861 1.7665411 0.8411599 1.1741939
work 4.475255 -1.2127732 -3.620015 2.5478425 1.7418449 -0.8506706 -1.523917 -1.8018693 -0.13103104 -2.4995472 -1.0934417 -1.7664465 0.6075668 -3.7534583 1.940239 1.585925 0.74557316 1.6211473 1.0199637 0.47936726 -1.3245591 -2.409124 -0.14045522 0.4790205 -1.3344482 -1.1077228 0.10979929 0.69220996 -1.2105302 -0.9562959 -2.8151245 -1.5901766 0.22507465 0.04160338 1.9920998 -1.330614 2.1666903 -0.33901328 -0.7361639 -3.0476577 -1.3322189 -0.009746714 0.80522305 1.5881301 -2.8016188 0.29006085 -1.5684109 0.5454183 1.5296029 1.0112184 -0.018920194 0.36269408 -0.05393322 -0.53722596 0.6262645 -0.46921274 4.387734 1.5572648 -2.1051326 -1.128246 -2.381371 4.7644916 1.8595159 0.20091595 -0.464872 2.573837 -2.4781241 -0.22312418 2.553854 2.484673 -1.9591208 -3.9137564 0.008614666 3.766622 -0.9802766 -0.6449366 -0.8117802 -4.709964 1.897268 -1.790393 -0.8913871 -1.5883813 -2.0565217 2.1093457 -0.15816557 -0.42184842 1.2942141 1.9241679 1.1652637 3.2357736 1.1915685 1.432212 4.733308 -0.06534829 -0.37174326 3.0005069 -0.6720377 -1.938179 3.7805557 -3.1619911
some 1.0329337 1.7908361 -2.2108104 1.6941324 0.117073245 0.9984654 -0.8585006 -0.63686156 -2.6792805 0.63617724 -1.5074458 -3.0781527 -0.3926625 -1.8126588 2.800638 0.7016987 -0.80559903 -1.1853958 1.344607 -0.007731178 2.1927767 -2.2802012 -0.2884385 -1.8789957 1.5822363 1.1535708 -0.14952387 -1.6234155 -0.2558152 -1.9671392 1.6321492 0.84617496 -0.9165008 0.8064593 1.5424342 0.65786445 0.50437784 -2.166054 -0.06945297 3.2214954 3.386197 -0.78315717 -4.4236784 0.32422042 -0.2024523 -1.5276016 1.7042935 -1.1267503 0.23234224 -0.8430675 0.2858287 0.7035831 -0.54612243 -0.17499039 0.49049926 -1.2991048 -2.3345742 0.51777554 3.110833 -2.7489574 0.98200154 3.7441654 -2.006026 -1.4077427 -2.0763652 0.375377 -0.004443773 2.6080112 1.0630591 3.4148712 -1.7837696 -2.9803536 2.2494984 -1.0916111 1.0408725 -2.1659021 1.53709 0.41664815 0.48376885 1.6697968 -2.3642156 -0.38639316 -0.54125386 -0.1831838 2.7287655 -0.8857994 -1.1023844 0.49314532 0.5818709 0.83476263 0.8054285 -0.9322433 -0.62430286 -1.218607 -0.8042088 -1.8908412 -0.16325241 0.091408625 -0.62694126 2.4771454
recommend 0.26127055 1.0062795 -0.89727825 3.9854572 1.6510892 2.0559542 -1.2300417 -1.037455 -2.5932703 -0.13232808 -0.7208595 -3.19081 2.4637396 4.0697956 -3.5212219 1.0454751 1.4682661 4.0055676 -5.3038073 2.5388808 -2.0826719 2.719472 2.0118146 1.5795985 -2.3283947 -3.6420004 2.5676157 2.6608684 -0.114735834 0.69962186 0.5824728 0.7907678 -0.13561407 1.9126499 -0.24993262 -0.23535773 1.9171644 -1.3744218 2.0920649 -2.5317829 2.8458843 -0.48460257 -0.95827687 -2.0185332 -1.8873783 1.9555067 -2.1565547 -3.0907202 0.5776617 -0.2431217 3.7920592 -5.253923 0.043917496 1.7557323 -0.4534911 0.13139895 -3.8106248 2.2206094 -1.2084745 -1.9861925 -1.9204453 -6.948762 0.5500631 1.5335319 -1.3998488 0.062874496 -0.3859474 -5.301655 3.5429888 3.2568345 0.76191276 2.321743 3.2170026 0.27001822 1.0139067 1.2525464 2.9606438 3.3626428 3.4095829 -3.2272785 -0.86939335 0.46674564 -1.713646 -0.70814615 -4.870782 3.2121143 2.3713746 0.7780711 -0.20345357 4.7825503 4.0633183 2.722703 -0.52628535 -0.7470966 -3.0989084 -1.4156244 2.0504162 -2.6343923 4.557287 -6.435531
am -0.7863118 0.8413799 -0.42197216 1.1632705 1.2572058 -2.134989 1.3366615 -0.27304608 -1.4267541 1.82984 1.5019394 1.6521864 1.737308 0.46185598 0.14308135 6.0113525 -1.6546973 1.1791025 -1.5527996 3.818258 -0.89817774 0.29510963 -0.034848392 0.022441136 1.5399011 0.9574128 3.97282 -0.4232913 -2.490404 -2.0251482 -0.7474217 0.27048472 4.2145095 -3.010495 0.9085359 5.0822177 -1.412707 1.8766366 0.59621906 -1.4224769 3.438195 -0.36797532 -2.6489892 0.83411485 3.1069636 2.7957203 0.4861088 -1.127725 2.4902587 4.1038074 -0.8933903 2.7582412 0.4749407 1.4226103 1.45095 0.22631493 -0.84070545 -0.43098557 -4.797005 0.27951226 -1.1211244 -2.210538 -1.4519926 -2.8837538 -1.495643 0.3997554 -0.33021668 -3.2494807 -0.79258704 1.6506512 2.2694278 -1.2996037 2.049862 3.2171674 2.7765896 1.9835961 -0.32803658 2.5407083 -0.74016 1.1720438 -0.8245314 3.582105 0.92939913 3.8444247 -1.177108 -1.3440634 -1.2373359 1.584197 0.6119684 -2.518012 1.3938017 -0.6565768 1.8157566 -3.4286876 -3.0850196 0.664968 1.5722663 -2.8901167 -0.06495341 0.6625773
which 1.6629735 -0.2907414 -0.04667038 -2.2978354 -2.163215 -1.747719 2.2864738 0.5011484 -0.8229087 2.016593 0.22201513 -0.68050677 0.03570612 -1.3311887 1.8180441 -0.23564865 -0.9730324 0.9110536 -0.79880315 0.10419643 1.5760577 -1.4603204 -0.18989027 -1.1859486 2.720754 -0.1024334 0.11518554 0.12665373 -0.04005247 -1.1647491 -1.3911417 -0.23934071 0.60576344 2.388636 2.0123007 -3.3780391 3.3159485 0.42974538 -0.6323004 0.6771088 -0.9287296 1.0117242 0.46017757 0.42786428 1.4547415 -1.0700078 2.0203338 0.122820035 -2.0853355 -0.53089374 -0.18126005 2.2626493 -0.42543986 -0.7503937 1.0407655 -0.4687143 -1.6083438 -1.6482736 2.502003 -2.258653 -1.5932372 2.2148674 1.9966322 1.3625157 3.744627 -1.3332472 0.95548105 1.1037825 -0.6788019 1.3641438 -0.953563 0.2189616 -2.4120517 -1.1395099 1.5336598 -0.29477555 0.7680094 -0.5218693 -0.8081299 3.4871967 2.5905385 -1.9552922 -0.65391016 -2.5000103 1.9954613 0.64401454 -0.936211 -1.331341 0.4619413 0.54304934 -0.60646886 -0.14417616 0.69725645 0.6235848 0.4684068 -1.4903044 -2.1234028 2.1159291 0.3507459 2.293629
what 2.1017065 0.2845142 -2.550427 -2.2544787 2.090818 -0.25324216 -2.2415712 -0.6531454 -1.8329284 1.4780627 -1.4758472 -1.9343553 -0.99417806 -1.5699772 2.6641586 2.1116393 -2.0455709 -1.7027656 0.0377306 2.065318 2.2908823 -3.5012724 0.49356076 2.262836 1.2407644 1.9998647 1.105217 -0.41355562 0.7178321 -3.4480855 -0.5126344 0.7428974 0.23238891 2.1149342 2.0877292 -1.5787157 2.0463996 0.8635583 -1.5711404 1.9402847 -3.5732703 5.482546 0.28755465 1.0256582 2.1098912 1.894275 -0.37578377 -0.9979755 -1.5233146 -3.20152 -1.1182439 2.4665916 0.08429452 -2.910356 -1.0841538 1.1095996 -1.3198389 0.6820985 3.034271 -0.37188458 0.66005445 -0.22972272 1.1147025 0.07580353 2.4878993 0.46420622 2.2381685 -3.2766356 2.4935954 -2.422111 -1.4546132 -4.0228896 5.539767 -0.72397894 0.18298818 -2.36613 1.9192687 -1.8179983 -0.59674275 -1.9426411 -0.6203725 -0.6545236 0.7031392 1.1187941 -0.78491974 -1.7468833 -0.91193825 3.4121816 -1.8811034 1.9117692 -1.177929 2.3296325 0.1395709 -4.6816263 0.8915717 1.4103041 0.60224575 4.19515 -2.3686872 3.2516613
first 1.3150384 2.303547 0.46734804 -1.4712687 -0.6032729 1.5044931 -3.000039 4.0221195 1.3896556 -2.4062612 0.68197256 0.19118503 -1.9190525 -0.023989718 2.3972538 -0.64888716 -0.72727555 -0.14073768 0.18920358 0.94651777 1.1721941 -0.045831926 -1.7251829 -1.8447889 0.30683604 1.3779736 -2.7094257 1.9842769 1.4123052 1.6696011 -3.9681916 -1.0052649 -0.6312627 -2.5122437 2.6318784 1.8121054 0.4329441 -0.1674452 -2.8859153 -2.100455 2.8004131 0.2587882 -1.5061638 1.3862383 1.3597137 -0.5139959 -1.2475828 -0.86077243 -0.71111435 1.4238787 -1.4902761 4.7364383 -2.2976944 0.7520259 0.17517836 0.5190616 0.61007184 0.76313955 -0.70434606 -0.39180988 -1.8410482 -1.0924695 2.80487 -1.6570573 -2.0776803 0.91163504 -1.9074535 3.6730144 -3.3676505 0.38529408 -3.3242671 0.81900597 4.2277875 0.26901013 -2.1237 1.8189017 -0.63540465 0.96519893 2.537232 -2.8805275 -1.4524988 -0.42596102 0.8885112 4.2496486 1.3815926 4.7945395 -0.36790305 2.2236533 0.009839023 1.1535379 1.3916663 1.2986445 -0.31939918 2.055582 0.43879768 -1.3327271 0.9928143 -0.023096256 -0.48891044 3.2781775
month -1.4453636 -1.3904204 5.2618637 -0.99091303 -2.1743104 -2.8076305 2.0564032 5.755532 -2.2383645 1.4393853 2.0599732 3.0737946 0.54303265 -4.402646 3.8428042 2.4660616 0.63024217 4.701249 -4.920249 3.206468 2.1778505 -2.7278209 -0.45297816 0.014082904 -2.9871671 -0.5297116 1.4704522 2.794603 -0.33018285 4.240077 -2.23245 0.33589214 1.9983779 -3.029459 1.9250684 4.36231 -1.0383662 -2.484979 3.989444 -2.3666081 -1.4724871 3.6018746 2.4230435 2.2883737 -0.053057346 -3.2614033 1.4182132 1.7789538 -0.14827678 -1.3212029 -3.507999 2.016135 2.464874 6.3490057 -0.16734637 -0.49106288 3.345582 0.05625212 -1.7174616 0.3508969 1.4654478 -0.005092726 6.0576468 -0.77668935 -0.3017937 -3.2519512 2.6996481 -4.5511675 0.81397647 -6.1991005 4.17498 -4.055807 0.61520594 5.930488 -2.2394843 -0.33558312 -1.0858923 -2.1401396 0.5904718 -6.6340146 -4.1104994 -5.4413133 2.8559968 -4.5284634 -2.2502143 2.2702777 -1.3058873 -3.864398 2.7633255 1.5281641 2.737797 -2.1218133 -0.033939674 2.7178485 -0.17995594 0.41983956 1.1815859 2.507865 -0.67596143 2.1788964
easy 2.384495 4.1004977 -3.3411067 -0.75188655 -3.5288332 0.7345247 0.97213244 0.9927756 1.0463533 0.34653428 -2.0443585 0.85428065 3.1436672 -0.5867484 2.3348422 1.8373446 -1.8782396 -1.6786531 -0.20468533 1.2302978 -4.2227607 -1.0762354 -2.399824 -0.22994268 1.3918266 -0.8230456 -3.6421409 -0.89708453 3.478418 0.7445588 3.894001 -6.5235276 -2.3883896 3.905069 -2.0586734 -3.5662968 -1.0194577 -4.167177 0.69327044 -0.5712497 -2.0871484 -0.07829545 3.446746 -0.7023951 -1.9927303 -1.6766601 -1.4361837 2.0815713 -3.5464115 2.1773038 2.72248 -0.15660994 -5.4810567 -1.3996098 -3.7693205 -1.8790922 -2.165368 -2.7322512 5.7534466 4.3444676 -1.717978 -1.2541993 1.5514383 -1.4633012 0.9867148 -1.2032852 0.761533 2.267548 -1.7227156 -1.0646493 0.6316369 0.40914172 -0.47658142 2.5794473 -1.548872 2.6572855 -3.7867992 4.589602 0.3061823 -2.2806334 -0.1008401 -0.5508984 2.9656305 -1.3994792 -1.0643955 0.5105322 -1.8651803 0.4771673 -1.1595039 0.79964304 -0.745774 -1.9576204 -3.6160715 0.014735061 2.9530215 1.9847658 -2.2086875 0.5444498 5.7286296 -1.1488683
